{"learner":{"attributes":{"best_iteration":"107","best_ntree_limit":"108","best_score":"16.669250413331284"},"feature_names":["CLRSKY_SRF_ALB","T2MDEW","DIFFUSE_ILLUMINANCE","DIRECT_ILLUMINANCE","GLOBAL_ILLUMINANCE","RH2M","QV2M","PS","T2M","SZA","WS2M","lag0","lag1","lag2","lag3","lag4","lag5","lag6","lag7","lag8","lag9","lag10","hour","dayofweek","quarter","month","year","dayofyear","dayofmonth","weekofyear"],"feature_types":["float","float","float","float","float","float","float","float","float","float","float","float","float","float","float","float","float","float","float","float","float","float","int","int","int","int","int","int","int","int"],"gradient_booster":{"model":{"gbtree_model_param":{"num_parallel_tree":"1","num_trees":"128","size_leaf_vector":"0"},"tree_info":[0,0,0,0,0,0,0,0,0,0,0,0,0,0,0,0,0,0,0,0,0,0,0,0,0,0,0,0,0,0,0,0,0,0,0,0,0,0,0,0,0,0,0,0,0,0,0,0,0,0,0,0,0,0,0,0,0,0,0,0,0,0,0,0,0,0,0,0,0,0,0,0,0,0,0,0,0,0,0,0,0,0,0,0,0,0,0,0,0,0,0,0,0,0,0,0,0,0,0,0,0,0,0,0,0,0,0,0,0,0,0,0,0,0,0,0,0,0,0,0,0,0,0,0,0,0,0,0],"trees":[{"base_weights":[3.9484543E1,5.4999027E0,9.3797905E1,2.567003E-1,3.5962578E1,6.8606705E1,1.1031398E2,-4.9997798E-1,8.547885E0,4.4123005E1,2.615403E1,9.3235435E1,6.041938E1,1.2743418E2,9.0972946E1,7.36146E0,2.6650629E1,3.908046E1,4.6752712E1,1.7993244E1,2.8850708E1,1.0135485E2,7.603627E1,5.0044834E1,6.456591E1,1.1393744E2,1.6632356E2,8.554154E1,1.17948616E2,1.2787334E1,5.2508774E0,1.827113E1,3.4118484E1,4.34126E1,3.783079E1,5.176295E1,4.380196E1,2.1225138E1,1.439125E1,3.1576918E1,2.2364447E1,1.1442601E2,9.1574745E1,7.353152E1,1.079495E2,5.4732464E1,4.2514248E1,7.2220764E1,5.9461235E1,1.2800815E2,1.0599388E2,1.53519E2,1.8616866E2,9.495277E1,7.2738106E1,1.4300389E2,9.868635E1,2.0170406E1,1.1600212E1,6.737759E0,3.9714286E0,2.0627666E1,1.5575151E1,2.4528E1,3.7473618E1,5.044425E1,4.0989628E1,3.954237E1,3.4521973E1,5.4906734E1,4.7855057E1,4.6134037E1,4.0805523E1,2.268651E1,1.8949238E1,1.5250765E1,9.449189E0,3.3305733E1,2.8518085E1,2.4739779E1,1.8342E1,1.3241624E2,1.0543808E2,1.0069078E2,8.522081E1,7.949859E1,6.703928E1,1.201432E2,8.215E1,5.202708E1,6.050549E1,4.417969E1,3.1495365E1,7.6747185E1,5.9949142E1,6.624213E1,5.623507E1,1.2126889E2,1.5371884E2,1.11273125E2,9.3301285E1,1.6392729E2,1.3226872E2,1.9925008E2,1.7412907E2,1.04835304E2,8.9352615E1,7.7628334E1,6.0434227E1,1.5099718E2,1.2095394E2,1.0847867E2,7.9444855E1,2.3632917E1,1.814549E1,9.982178E0,1.2009434E1,6.5632424E0,7.6374745E0,3.18993E0,4.1469707E0,3.0807083E1,4.257875E1,3.5956875E1,4.207017E1,5.328972E1,7.4083336E1,4.422805E1,6.0761524E1,4.159613E1,3.1792307E1,3.221011E1,3.8654476E1,9.174E0,1.8512794E1,1.0247054E2,1.3980698E2,9.9750465E1,1.3986171E2,9.569244E1,1.3550575E2,8.6998604E1,7.358097E1,9.180675E1,7.3540474E1,8.307114E1,6.355982E1,1.249687E2,4.31E1,5.1162956E1,6.0341072E1,6.846304E1,5.5174206E1,4.3112328E1,5.3286602E1,7.435468E1,9.893255E1,6.469263E1,5.5612034E1,6.2155373E1,8.3371216E1,5.506042E1,7.286772E1,1.1729517E2,1.381396E2,1.7062762E2,1.4054909E2,1.042586E2,1.261057E2,9.607084E1,7.788361E1,1.7881842E2,1.4451323E2,1.4671965E2,1.22924324E2,1.899364E2,2.358851E2,1.6634705E2,2.133025E2,1.00039986E2,1.2366614E2,9.282774E1,7.3118484E1,8.146675E1,6.1563805E1,6.3428764E1,5.324394E1,1.38877E2,1.7648482E2,9.567296E1,1.202325E2,6.954868E1,8.660085E1,2.9247778E1,1.89975E1,1.3273896E1,1.024E1,7.6474376E0,6.1016154E0,3.606E0,2.8072152E0,4.627099E0,3.2783334E0,4.0616974E1,4.6655437E1,3.3755054E1,2.896022E1,1.9810734E1,1.5494151E1,1.1809631E2,8.145158E1,7.9473335E1,1.4155653E2,1.1076845E2,9.035888E1,8.3599045E1,1.00114494E2,9.317178E1,7.7396645E1,4.88E1,9.442225E1,8.149387E1,6.720286E1,8.4531425E1,3.493667E1,5.302457E1,4.7901184E1,5.998922E1,7.757577E1,5.790325E1,4.8766884E1,3.754648E1,4.4284725E1,7.2662094E1,8.494052E1,6.9832794E1,5.9371765E1,5.208351E1,5.984771E1,6.816753E1,5.651612E1,8.636585E1,5.827611E1,5.641053E1,4.216139E1,7.741766E1,5.59392E1,1.2370755E2,9.44588E1,1.7403172E2,1.2530792E2,1.7880466E2,1.07543335E2,1.5549141E2,1.26582275E2,9.834524E1,1.137737E2,1.4035626E2,1.1294787E2,7.123564E1,8.619792E1,2.0621696E2,1.6221179E2,1.53516E2,1.2161148E2,1.657082E2,1.3519662E2,1.3793388E2,1.1620892E2,2.1727638E2,1.815562E2,9.614E1,2.3962694E2,1.8338315E2,1.535684E2,1.0254326E2,7.632972E1,1.1455246E2,1.3979745E2,9.422585E1,7.528356E1,6.932394E1,9.124413E1,7.937226E1,9.550633E1,5.9012154E1,8.366458E1,6.7627106E1,5.726461E1,5.4648952E1,3.912389E1,7.049671E1,3.486E1,8.945518E1,5.9641666E1],"categories":[],"categories_nodes":[],"categories_segments":[],"categories_sizes":[],"default_left":[1,1,1,1,1,1,1,0,1,0,0,1,0,0,0,1,0,1,1,1,1,1,0,1,1,1,0,1,1,1,1,1,0,1,1,1,1,1,1,1,1,1,1,1,0,1,1,1,1,1,1,1,1,1,1,1,1,1,0,1,1,0,0,0,0,0,0,1,0,0,0,0,1,0,0,0,0,0,0,0,0,1,0,0,1,1,1,1,0,0,1,0,0,0,1,0,0,0,1,0,1,1,1,1,0,1,1,1,1,0,0,0,0,1,0,0,1,1,0,1,1,0,0,0,0,0,0,0,0,0,0,1,0,0,1,0,0,1,0,1,0,1,0,1,1,0,0,0,0,1,0,0,1,0,0,1,0,1,1,1,1,1,1,1,1,1,0,1,1,0,0,1,1,1,1,1,0,1,0,1,0,1,0,1,0,1,1,0,0,0,0,1,1,0,0,0,0,0,0,0,0,0,0,0,0,0,0,0,0,0,0,0,0,0,0,0,0,0,0,0,0,0,0,0,0,0,0,0,0,0,0,0,0,0,0,0,0,0,0,0,0,0,0,0,0,0,0,0,0,0,0,0,0,0,0,0,0,0,0,0,0,0,0,0,0,0,0,0,0,0,0,0,0,0,0,0,0,0,0,0,0,0,0,0,0,0,0,0,0,0,0,0,0,0,0],"id":0,"left_children":[1,3,5,7,9,11,13,-1,15,17,19,21,23,25,27,29,31,33,35,37,39,41,43,45,47,49,51,53,55,57,59,61,63,65,67,69,71,73,75,77,79,81,83,85,87,89,91,93,95,97,99,101,103,105,107,109,111,113,115,117,119,-1,-1,-1,121,-1,-1,123,-1,125,-1,127,129,-1,-1,-1,-1,131,-1,-1,133,135,137,139,141,143,145,147,-1,149,151,153,-1,155,157,159,161,163,165,167,169,171,173,175,177,179,181,183,185,187,-1,189,191,193,-1,-1,195,197,-1,199,201,-1,-1,-1,-1,-1,-1,-1,-1,203,-1,205,-1,-1,207,209,211,213,-1,215,-1,217,-1,219,221,223,-1,-1,-1,225,-1,227,229,231,-1,233,-1,235,237,239,241,243,245,247,249,251,253,255,257,-1,259,261,263,265,267,269,271,273,-1,275,277,279,281,283,285,287,289,-1,-1,-1,-1,291,293,-1,-1,-1,-1,-1,-1,-1,-1,-1,-1,-1,-1,-1,-1,-1,-1,-1,-1,-1,-1,-1,-1,-1,-1,-1,-1,-1,-1,-1,-1,-1,-1,-1,-1,-1,-1,-1,-1,-1,-1,-1,-1,-1,-1,-1,-1,-1,-1,-1,-1,-1,-1,-1,-1,-1,-1,-1,-1,-1,-1,-1,-1,-1,-1,-1,-1,-1,-1,-1,-1,-1,-1,-1,-1,-1,-1,-1,-1,-1,-1,-1,-1,-1,-1,-1,-1,-1,-1,-1,-1,-1,-1,-1,-1,-1,-1,-1,-1,-1,-1,-1,-1],"loss_changes":[8.7090824E7,4.635761E6,7.548064E6,1.5536136E5,3.39985E5,1.444988E6,3.619832E6,0E0,4.428383E4,2.9003E4,4.2130375E4,2.4268E5,2.29154E5,3.033224E6,7.44904E5,2.2206523E4,7.323875E3,2.705E3,2.024875E4,5.328922E3,2.50225E4,1.44844E5,3.83445E4,5.22835E4,1.46382E5,4.69284E5,3.51564E5,5.10382E5,4.01425E5,4.533961E3,2.6403945E3,7.261914E1,1.2045547E3,8.798125E2,2.2084375E3,4.240125E3,4.860875E3,4.115625E2,8.413789E2,4.454625E3,3.6929375E3,6.94735E4,3.19645E4,1.559E4,2.713875E3,1.16895E4,9.582625E3,8.083E4,4.70055E4,2.5062E5,1.75026E5,1.80696E5,5.6968E4,1.27388E5,1.04996E5,4.7302E4,8.3707E4,9.000781E1,1.9198047E2,5.1460938E1,9.04834E1,0E0,0E0,0E0,2.8785156E2,0E0,0E0,2.1941875E3,0E0,5.44775E3,0E0,1.222825E4,1.7488125E3,0E0,0E0,0E0,0E0,2.5465E3,0E0,0E0,8.852734E1,2.28555E4,5.437875E4,3.6106E4,2.269E3,1.34885E4,9.50225E3,3.9081562E3,0E0,1.61125E3,8.8225E3,2.7280625E3,0E0,5.2092E4,5.022375E3,4.676E4,2.6818E4,6.6658E4,4.7055E4,1.89636E5,2.7489E4,1.50508E5,2.3285E4,4.8005E4,5.9325E4,6.7815E4,8.2575E4,7.52075E4,7.883875E3,5.85885E4,0E0,3.696325E4,5.945125E3,6.9018555E1,0E0,0E0,6.9414844E2,2.2810938E2,0E0,1.2647949E1,2.409043E2,0E0,0E0,0E0,0E0,0E0,0E0,0E0,0E0,5.1875E1,0E0,1.7488125E3,0E0,0E0,3.2385156E2,2.5330312E3,2.68375E3,2.13445E4,0E0,5E3,0E0,1.400925E4,0E0,5.0658125E3,4.150875E3,1.395625E2,0E0,0E0,0E0,1.09725E3,0E0,4.2265625E3,3.76125E2,1.391125E3,0E0,1.20145E4,0E0,1.1598125E3,2.60625E2,1.65915E4,5.488E3,2.3361E4,3.44875E3,1.35775E5,8.4121E4,5.040975E4,1.892625E4,6.3589E4,1.00589E5,0E0,1.045125E3,1.21703E5,3.69995E4,2.75975E3,3.3235E3,1.14155E4,3.63025E3,2.93105E4,0E0,3.4492E4,9.86075E3,2.4818E4,1.320775E4,2.3207E4,9.4430625E3,5.547375E3,1.0361562E3,0E0,0E0,0E0,0E0,4.18125E1,1.8980625E3,0E0,0E0,0E0,0E0,0E0,0E0,0E0,0E0,0E0,0E0,0E0,0E0,0E0,0E0,0E0,0E0,0E0,0E0,0E0,0E0,0E0,0E0,0E0,0E0,0E0,0E0,0E0,0E0,0E0,0E0,0E0,0E0,0E0,0E0,0E0,0E0,0E0,0E0,0E0,0E0,0E0,0E0,0E0,0E0,0E0,0E0,0E0,0E0,0E0,0E0,0E0,0E0,0E0,0E0,0E0,0E0,0E0,0E0,0E0,0E0,0E0,0E0,0E0,0E0,0E0,0E0,0E0,0E0,0E0,0E0,0E0,0E0,0E0,0E0,0E0,0E0,0E0,0E0,0E0,0E0,0E0,0E0,0E0,0E0,0E0,0E0,0E0,0E0,0E0,0E0,0E0,0E0,0E0,0E0,0E0,0E0,0E0,0E0,0E0,0E0,0E0,0E0],"parents":[2147483647,0,0,1,1,2,2,3,3,4,4,5,5,6,6,8,8,9,9,10,10,11,11,12,12,13,13,14,14,15,15,16,16,17,17,18,18,19,19,20,20,21,21,22,22,23,23,24,24,25,25,26,26,27,27,28,28,29,29,30,30,31,31,32,32,33,33,34,34,35,35,36,36,37,37,38,38,39,39,40,40,41,41,42,42,43,43,44,44,45,45,46,46,47,47,48,48,49,49,50,50,51,51,52,52,53,53,54,54,55,55,56,56,57,57,58,58,59,59,60,60,64,64,67,67,69,69,71,71,72,72,77,77,80,80,81,81,82,82,83,83,84,84,85,85,86,86,87,87,89,89,90,90,91,91,93,93,94,94,95,95,96,96,97,97,98,98,99,99,100,100,101,101,102,102,103,103,104,104,105,105,106,106,107,107,108,108,109,109,111,111,112,112,113,113,116,116,117,117,119,119,120,120,129,129,131,131,134,134,135,135,136,136,137,137,139,139,141,141,143,143,144,144,145,145,149,149,151,151,152,152,153,153,155,155,157,157,158,158,159,159,160,160,161,161,162,162,163,163,164,164,165,165,166,166,167,167,168,168,170,170,171,171,172,172,173,173,174,174,175,175,176,176,177,177,179,179,180,180,181,181,182,182,183,183,184,184,185,185,186,186,191,191,192,192],"right_children":[2,4,6,8,10,12,14,-1,16,18,20,22,24,26,28,30,32,34,36,38,40,42,44,46,48,50,52,54,56,58,60,62,64,66,68,70,72,74,76,78,80,82,84,86,88,90,92,94,96,98,100,102,104,106,108,110,112,114,116,118,120,-1,-1,-1,122,-1,-1,124,-1,126,-1,128,130,-1,-1,-1,-1,132,-1,-1,134,136,138,140,142,144,146,148,-1,150,152,154,-1,156,158,160,162,164,166,168,170,172,174,176,178,180,182,184,186,188,-1,190,192,194,-1,-1,196,198,-1,200,202,-1,-1,-1,-1,-1,-1,-1,-1,204,-1,206,-1,-1,208,210,212,214,-1,216,-1,218,-1,220,222,224,-1,-1,-1,226,-1,228,230,232,-1,234,-1,236,238,240,242,244,246,248,250,252,254,256,258,-1,260,262,264,266,268,270,272,274,-1,276,278,280,282,284,286,288,290,-1,-1,-1,-1,292,294,-1,-1,-1,-1,-1,-1,-1,-1,-1,-1,-1,-1,-1,-1,-1,-1,-1,-1,-1,-1,-1,-1,-1,-1,-1,-1,-1,-1,-1,-1,-1,-1,-1,-1,-1,-1,-1,-1,-1,-1,-1,-1,-1,-1,-1,-1,-1,-1,-1,-1,-1,-1,-1,-1,-1,-1,-1,-1,-1,-1,-1,-1,-1,-1,-1,-1,-1,-1,-1,-1,-1,-1,-1,-1,-1,-1,-1,-1,-1,-1,-1,-1,-1,-1,-1,-1,-1,-1,-1,-1,-1,-1,-1,-1,-1,-1,-1,-1,-1,-1,-1,-1],"split_conditions":[4.509E1,-6.004411E-1,7.3715E1,1.7221087E-1,1.4235955E0,9.0236676E-1,5.4404014E-1,-2.49989E-2,1.9224998E1,4.089E1,2.216E1,2.455E2,4.991E1,9.616E1,1.23775E2,1.595209E0,1.6970001E1,1.3255929E0,1.2682432E0,1.5435216E0,1.4918344E0,6.272335E-1,7.565E1,1.2744863E0,1.086757E0,1.9046197E0,1.2942499E2,8.5735816E-1,8.634561E-1,1.5606539E0,1.6143739E0,1.5487485E0,2.666E1,4.25E1,2.785E2,4.05E1,1.3679881E0,1.5278413E0,1.5750277E0,2.695E2,1.5243567E0,1.3653437E0,8.227416E-1,7.687928E-1,8.475E1,-1.1345926E-1,1.4296935E0,4.05E1,2.15E-1,1.1311119E0,2.983802E-1,3.0578488E-1,2.0865336E-1,1.0061283E0,1.1005498E0,1.1959238E0,1.0883539E0,2.0025E3,8.45E0,1.0174999E1,-6.5594983E-1,1.0313834E0,7.787576E-1,1.2264E0,2.7060001E1,2.5222125E0,2.0494814E0,5.35E1,1.7260987E0,1.1306E2,2.392753E0,1.0416E2,2.755E2,1.1343255E0,9.474619E-1,7.6253825E-1,4.7245947E-1,1.26735E2,1.4259043E0,1.2369889E0,7.3500004E0,1.015E2,1.02025E2,1.44375E2,1.5545304E0,1.1271894E0,2.8907418E-1,1.0425324E0,4.1075E0,5.189E1,-4.0467307E-2,1.40685E2,1.5747683E0,1.16535E2,4.3091536E-1,1.33105E2,1.3184E2,7.8935E1,1.1572908E0,7.2490005E1,2.495E2,2.2726467E0,1.493705E0,2.125E2,2.08925E2,1.0811626E0,2.535E2,2.665E2,2.435E2,1.7815E2,6.047697E0,1.576E2,1.5825E2,1.4919796E0,9.0727454E-1,4.9910888E-1,1.5818516E0,1.6050819E0,3.8187373E-1,1.6256987E0,1.6216334E0,1.5403541E0,2.1289375E0,1.7978438E0,2.1035087E0,2.664486E0,3.704167E0,2.2114027E0,3.0380762E0,1.2369E2,1.5896153E0,1.4610543E0,1.9327239E0,4.587E-1,1.5456996E0,1.09565E2,6.5375E1,3.2770842E-1,6.9930854E0,-6.462523E-1,6.7752876E0,8.4138733E-1,3.6790485E0,-6.962016E-1,5.778692E-1,1.24525E2,3.177991E0,6.248435E0,2.155E0,1.1860662E0,3.0170536E0,5.6285E1,1.1840336E0,3.4260002E1,2.6643302E0,7.273547E-1,4.9466276E0,1.0024021E0,-2.1335796E-1,7.5E0,1.282762E0,1.3084606E0,1.306428E0,1.25E1,1.25E1,1.25E1,1.09225E2,8.0227876E-1,1.25E1,4.803542E0,4.29E1,1.25E1,1.35E1,6.18415E-1,1.45E1,1.25E1,7.3265E1,1.45E1,1.0665126E1,2.785E2,1.179E2,8.132207E-1,6.5884995E1,1.4370517E0,6.9525E1,1.1605129E0,1.2923446E0,6.94385E0,8.824241E0,4.783648E0,6.011625E0,1.3361917E0,1.2890053E0,1.4623889E0,9.49875E-1,6.636948E-1,5.12E-1,3.8237187E-1,3.0508077E-1,1.803E-1,1.4036076E-1,2.3135495E-1,1.6391668E-1,2.0308487E0,2.332772E0,1.6877527E0,1.448011E0,9.905367E-1,7.7470756E-1,5.9048157E0,4.072579E0,3.973667E0,7.077827E0,5.5384226E0,4.517944E0,4.179952E0,5.005725E0,4.6585894E0,3.8698323E0,2.44E0,4.7211127E0,4.0746937E0,3.360143E0,4.2265716E0,1.7468334E0,2.6512287E0,2.3950593E0,2.999461E0,3.8787885E0,2.8951626E0,2.4383442E0,1.877324E0,2.2142363E0,3.6331048E0,4.247026E0,3.4916399E0,2.9685884E0,2.6041756E0,2.9923856E0,3.4083765E0,2.8258061E0,4.3182926E0,2.9138057E0,2.8205266E0,2.1080694E0,3.8708832E0,2.79696E0,6.1853776E0,4.72294E0,8.701587E0,6.265396E0,8.940233E0,5.3771667E0,7.7745705E0,6.329114E0,4.917262E0,5.688685E0,7.017813E0,5.6473937E0,3.5617821E0,4.309896E0,1.0310848E1,8.11059E0,7.6758003E0,6.080574E0,8.285411E0,6.7598314E0,6.896694E0,5.8104463E0,1.0863819E1,9.07781E0,4.807E0,1.1981347E1,9.169158E0,7.6784205E0,5.127163E0,3.8164861E0,5.727623E0,6.989873E0,4.7112927E0,3.764178E0,3.4661968E0,4.5622067E0,3.9686131E0,4.7753167E0,2.9506078E0,4.183229E0,3.3813553E0,2.8632305E0,2.7324476E0,1.9561945E0,3.5248356E0,1.743E0,4.472759E0,2.9820833E0],"split_indices":[12,4,14,9,9,9,9,0,20,20,20,27,20,11,11,9,14,9,9,9,9,9,11,9,9,4,11,9,9,9,9,9,21,29,27,29,9,9,9,27,9,4,4,9,20,6,9,29,0,6,9,9,9,4,9,4,9,26,21,21,4,0,0,0,12,0,0,27,0,11,0,11,27,0,0,0,0,11,0,0,12,27,11,11,4,4,4,4,0,11,4,11,0,11,4,11,11,11,4,11,27,4,4,27,11,6,27,27,27,11,0,11,11,9,0,0,9,9,0,9,9,0,0,0,0,0,0,0,0,11,0,9,0,0,9,20,18,9,0,6,0,9,0,6,9,12,0,0,0,9,0,14,9,20,0,6,0,9,6,22,9,9,9,22,22,22,20,6,22,0,11,22,22,8,22,22,20,22,0,27,16,9,11,6,11,9,9,0,0,0,0,9,9,0,0,0,0,0,0,0,0,0,0,0,0,0,0,0,0,0,0,0,0,0,0,0,0,0,0,0,0,0,0,0,0,0,0,0,0,0,0,0,0,0,0,0,0,0,0,0,0,0,0,0,0,0,0,0,0,0,0,0,0,0,0,0,0,0,0,0,0,0,0,0,0,0,0,0,0,0,0,0,0,0,0,0,0,0,0,0,0,0,0,0,0,0,0,0,0,0,0,0,0,0,0],"split_type":[0,0,0,0,0,0,0,0,0,0,0,0,0,0,0,0,0,0,0,0,0,0,0,0,0,0,0,0,0,0,0,0,0,0,0,0,0,0,0,0,0,0,0,0,0,0,0,0,0,0,0,0,0,0,0,0,0,0,0,0,0,0,0,0,0,0,0,0,0,0,0,0,0,0,0,0,0,0,0,0,0,0,0,0,0,0,0,0,0,0,0,0,0,0,0,0,0,0,0,0,0,0,0,0,0,0,0,0,0,0,0,0,0,0,0,0,0,0,0,0,0,0,0,0,0,0,0,0,0,0,0,0,0,0,0,0,0,0,0,0,0,0,0,0,0,0,0,0,0,0,0,0,0,0,0,0,0,0,0,0,0,0,0,0,0,0,0,0,0,0,0,0,0,0,0,0,0,0,0,0,0,0,0,0,0,0,0,0,0,0,0,0,0,0,0,0,0,0,0,0,0,0,0,0,0,0,0,0,0,0,0,0,0,0,0,0,0,0,0,0,0,0,0,0,0,0,0,0,0,0,0,0,0,0,0,0,0,0,0,0,0,0,0,0,0,0,0,0,0,0,0,0,0,0,0,0,0,0,0,0,0,0,0,0,0,0,0,0,0,0,0,0,0,0,0,0,0,0,0,0,0,0,0,0,0,0,0,0,0,0,0,0,0,0,0],"sum_hessian":[4.7182E4,2.9023E4,1.8159E4,2.4762E4,4.261E3,7.193E3,1.0966E4,2.2692E4,2.07E3,2.324E3,1.937E3,1.792E3,5.401E3,5.814E3,5.152E3,1.944E3,1.26E2,8.02E2,1.522E3,4.83E2,1.454E3,1.214E3,5.78E2,1.546E3,3.855E3,4.319E3,1.495E3,4.292E3,8.6E2,5.43E2,1.401E3,6.1E1,6.5E1,1.72E2,6.3E2,5.58E2,9.64E2,2.52E2,2.31E2,1.021E3,4.33E2,5.15E2,6.99E2,5.39E2,3.9E1,9.49E2,5.97E2,1.537E3,2.318E3,1.553E3,2.766E3,9.14E2,5.81E2,2.47E3,1.822E3,3.71E2,4.89E2,7.3E1,4.7E2,6.46E2,7.55E2,2.9E1,3.2E1,1.9E1,4.6E1,3.9E1,1.33E2,4.08E2,2.22E2,3.02E2,2.56E2,5.34E2,4.3E2,1.48E2,1.04E2,1.95E2,3.6E1,6.46E2,3.75E2,2.69E2,1.64E2,1.67E2,3.48E2,2.81E2,4.18E2,2.75E2,2.64E2,2.4E1,1.5E1,6.53E2,2.96E2,5.16E2,8.1E1,1.119E3,4.18E2,7.41E2,1.577E3,1.235E3,3.18E2,1.948E3,8.18E2,6.09E2,3.05E2,2.71E2,3.1E2,8.87E2,1.583E3,1.3E3,5.22E2,2.68E2,1.03E2,3.21E2,1.68E2,2.3E1,5E1,1E2,3.7E2,5.48E2,9.8E1,1.42E2,6.13E2,2.3E1,2.3E1,1.75E2,2.33E2,2.82E2,2E1,4.76E2,5.8E1,3.92E2,3.8E1,5.42E2,1.04E2,4E0,1.6E2,3.6E1,1.31E2,3.02E2,4.6E1,2.49E2,3.2E1,3.57E2,6.1E1,8.5E1,1.9E2,4.3E1,2.21E2,2.2E1,2E0,5.98E2,5.5E1,1.14E2,1.82E2,4.67E2,4.9E1,1.014E3,1.05E2,1.93E2,2.25E2,6.02E2,1.39E2,1.477E3,1E2,1.006E3,2.29E2,1.34E2,1.84E2,1.328E3,6.2E2,6.89E2,1.29E2,3.4E2,2.69E2,1.14E2,1.91E2,2.21E2,5E1,2.63E2,4.7E1,7.12E2,1.75E2,1.3E3,2.83E2,1.046E3,2.54E2,3.63E2,1.59E2,1.86E2,8.2E1,1.58E2,1.63E2,7.5E1,9.3E1,8E0,1.5E1,2.12E2,1.58E2,1.59E2,3.89E2,6.4E1,7.8E1,3.92E2,2.21E2,3.36E2,5.6E1,3.61E2,1.81E2,1.08E2,5.2E1,1.8E1,1.8E1,5E0,1.26E2,1.34E2,1.68E2,7.2E1,1.77E2,2.12E2,1.45E2,6E0,7.9E1,7.9E1,1.11E2,4.1E1,2E0,3.71E2,2.27E2,6.3E1,5.1E1,1.22E2,6E1,8.7E1,3.8E2,8.81E2,1.33E2,9.2E1,1.01E2,1.3E2,9.5E1,2.86E2,3.16E2,1.22E2,1.7E1,1.334E3,1.43E2,7.6E1,2.4E1,7.82E2,2.24E2,5.7E1,1.72E2,1.17E2,1.7E1,8.4E1,1E2,8.26E2,5.02E2,2.93E2,3.27E2,7.7E1,5.2E1,1.24E2,2.16E2,1.89E2,8E1,3.8E1,7.6E1,5.3E1,1.38E2,4.6E1,1.75E2,2E0,4.8E1,1.07E2,1.56E2,6.41E2,7.1E1,1.17E2,5.8E1,1.2E3,1E2,2.38E2,4.5E1,9.16E2,1.3E2,2.31E2,2.3E1,2.1E2,1.53E2,1.42E2,1.7E1,7.2E1,3E0,8.2E1,1.1E1],"tree_param":{"num_deleted":"0","num_feature":"30","num_nodes":"295","size_leaf_vector":"0"}},{"base_weights":[3.7225704E1,5.8473344E0,9.0178276E1,2.5807342E-1,3.5434532E1,1.1403708E2,6.83408E1,-4.4397423E-1,8.64838E0,2.6257755E1,4.2225414E1,1.2674299E2,9.288364E1,5.6355152E1,7.6654976E1,-4.7498015E-1,3.4879436E0,2.350275E1,6.8419933E0,3.1391397E1,1.8097692E1,4.712354E1,3.5198193E1,1.4497733E2,1.170668E2,7.435171E1,1.0182028E2,7.035165E1,5.3151237E1,8.1686935E1,5.797638E1,1.8928188E1,3.2065387E0,3.4439312E1,1.9515236E1,5.190359E0,1.0288456E1,2.818815E1,3.445618E1,1.3569279E1,2.006623E1,5.1097836E1,4.277397E1,3.9644985E1,3.133948E1,1.3074771E2,1.5315262E2,1.2586456E2,1.08364655E2,6.389029E1,7.893717E1,9.626944E1,1.1254615E2,5.68815E1,8.596592E1,4.4053818E1,5.7337963E1,6.9536E1,8.618313E1,6.34228E1,5.2870754E1,3.5509274E0,2.5881255E0,3.8924606E1,2.9230455E1,2.40069E1,1.7673067E1,6.79709E0,4.075662E0,1.2422684E1,8.847559E0,3.2349613E1,2.7009884E1,3.665425E1,2.9827631E1,1.5260395E1,1.0247686E1,2.2198671E1,1.8152882E1,4.73769E1,5.533328E1,4.6484882E1,3.963408E1,4.220652E1,3.5772465E1,3.3440002E1,2.5173634E1,1.2152255E2,1.6321689E2,1.6675354E2,1.3959276E2,1.16785545E2,1.3692938E2,1.5818585E2,1.0422568E2,6.717337E1,5.9086433E1,8.3588585E1,7.200048E1,1.027285E2,8.827834E1,1.0091486E2,1.2122135E2,6.5970795E1,4.516567E1,7.0988716E1,1.0077821E2,4.6189198E1,3.5612846E1,6.034829E1,5.062809E1,7.683831E1,6.279653E1,1.2538695E2,8.499095E1,6.594908E1,5.2860077E1,5.7581413E1,5.108855E1,8.74913E0,6.186838E0,4.5929847E0,3.1513827E0,1.3036217E1,1.1113962E1,9.579513E0,7.584868E0,2.8487654E1,2.5524471E1,3.8034225E1,3.3397076E1,3.0910994E1,2.552801E1,1.1441827E1,7.347178E0,2.3255905E1,2.0361897E1,1.870311E1,1.4273884E1,5.1564167E1,4.529954E1,5.87683E1,4.505914E1,4.080397E1,3.6304066E1,3.801693E1,4.364647E1,3.5567886E1,3.049939E1,2.6662428E1,2.00236E1,1.5017332E2,1.1644351E2,1.2714101E2,1.7120871E2,1.4737178E2,1.7630878E2,1.3033398E2,1.504217E2,1.269425E2,1.10675934E2,1.4742166E2,1.23758644E2,1.0379864E2,1.6385503E2,1.1148113E2,9.492586E1,7.9139565E1,8.771976E1,9.739924E1,1.0867084E2,8.220359E1,9.436229E1,1.0422764E2,8.466727E1,1.26405136E2,1.1217018E2,5.870463E1,8.187801E1,4.6628403E1,3.2775787E1,6.1131824E1,8.1075775E1,1.2091394E2,8.338713E1,5.3991207E1,4.4784595E1,3.7099285E1,2.7587845E1,5.6627068E1,6.392923E1,5.421567E1,4.7521748E1,8.226691E1,7.001105E1,6.0222305E1,7.127442E1,1.1021099E2,1.3660352E2,9.307782E1,8.0037865E1,7.4573875E1,6.0585262E1,4.765744E1,5.3881565E1,5.3572226E-1,3.2137623E0,3.4599712E1,4.0322357E1,6.1433945E1,5.2653355E1,3.8772976E1,5.1740913E1,3.923487E1,3.2524044E1,9.461075E1,1.6733545E2,1.1476153E2,1.5015527E2,1.308482E2,5.0160217E1,1.5588329E2,2.0456628E2,1.4950482E2,6.964076E1,1.8046678E2,1.4208353E2,1.27100204E2,1.914747E2,2.0385065E2,1.43063E2,1.3130208E2,9.584554E1,1.0686296E2,1.3019562E2,1.4077715E2,1.8438878E2,1.26892426E2,8.9532616E1,1.489452E2,2.0344841E2,1.0754512E2,1.25956184E2,9.844408E1,7.8005424E1,8.1955605E1,1.1143748E2,8.437092E1,6.420209E1,9.747119E1,7.71227E1,1.11416916E2,1.3673615E2,6.1454777E1,4.8148323E1,3.1944555E1,8.299149E1,4.843602E1,3.721617E1,4.917622E1,6.800326E1,6.914616E1,9.34157E1,1.23044914E2,5.4458824E1,4.7845875E1,8.495171E1,4.2955853E1,5.682799E1,4.7254738E1,4.1590797E1,5.3743034E1,6.480469E1,6.2746662E1,8.574988E1,5.66644E1,6.6997696E1,8.6711716E1,1.002337E2,7.313345E1,8.3886314E1,3.9453465E1,7.565785E1],"categories":[],"categories_nodes":[],"categories_segments":[],"categories_sizes":[],"default_left":[1,1,1,1,0,1,1,1,1,1,1,1,1,1,1,0,1,1,1,0,0,1,1,1,1,1,1,1,1,1,1,0,1,1,1,1,1,1,1,1,1,1,1,1,1,1,1,1,1,1,1,1,1,1,1,1,1,1,1,1,1,0,0,0,0,0,0,1,1,1,1,0,1,1,1,0,1,1,1,1,1,0,1,1,0,1,1,1,0,1,1,1,1,1,1,0,0,1,0,1,1,1,1,1,1,0,1,1,1,1,1,1,0,1,1,1,0,0,1,0,0,0,1,0,0,0,0,0,0,1,0,0,0,0,0,0,0,0,0,0,0,1,1,0,0,0,0,1,0,0,0,1,0,0,1,1,1,1,1,1,1,1,1,0,1,1,1,0,0,0,1,1,1,0,0,1,0,1,0,1,0,1,1,1,0,0,1,0,0,0,1,0,0,1,0,1,0,0,0,0,1,1,0,0,0,0,0,0,0,0,0,0,0,0,0,0,0,0,0,0,0,0,0,0,0,0,0,0,0,0,0,0,0,0,0,0,0,0,0,0,0,0,0,0,0,0,0,0,0,0,0,0,0,0,0,0,0,0,0,0,0,0,0,0,0,0,0,0,0,0,0,0,0,0,0,0,0,0,0,0,0,0,0],"id":1,"left_children":[1,3,5,7,9,11,13,15,17,19,21,23,25,27,29,-1,31,33,35,37,39,41,43,45,47,49,51,53,55,57,59,-1,61,63,65,67,69,71,73,75,77,79,81,83,85,87,89,91,93,95,97,99,101,103,105,107,109,111,113,115,117,-1,-1,-1,-1,-1,-1,119,121,123,125,-1,127,129,131,-1,133,135,137,139,141,-1,143,145,-1,147,149,151,153,155,157,159,161,163,165,-1,-1,167,-1,169,171,173,175,177,179,181,183,185,187,189,191,193,195,197,199,201,-1,-1,203,-1,-1,-1,205,-1,-1,-1,-1,-1,-1,207,-1,-1,-1,-1,-1,-1,-1,-1,-1,-1,-1,209,211,-1,-1,-1,-1,213,-1,-1,-1,215,217,219,221,223,225,227,229,231,233,235,237,-1,239,241,243,-1,-1,-1,245,247,249,-1,-1,251,-1,253,255,257,-1,259,261,263,265,267,269,-1,-1,-1,271,-1,-1,273,-1,275,-1,-1,-1,277,279,281,-1,-1,-1,-1,-1,-1,-1,-1,-1,-1,-1,-1,-1,-1,-1,-1,-1,-1,-1,-1,-1,-1,-1,-1,-1,-1,-1,-1,-1,-1,-1,-1,-1,-1,-1,-1,-1,-1,-1,-1,-1,-1,-1,-1,-1,-1,-1,-1,-1,-1,-1,-1,-1,-1,-1,-1,-1,-1,-1,-1,-1,-1,-1,-1,-1,-1,-1,-1,-1,-1,-1,-1,-1,-1,-1,-1,-1,-1,-1,-1,-1],"loss_changes":[7.793686E7,4.870816E6,9.085504E6,1.4593839E5,2.90541E5,2.229536E6,9.03996E5,2.7889478E3,5.1170234E4,8.292025E4,9.0863E4,9.01744E5,5.11296E5,1.63841E5,5.00838E5,0E0,7.170542E2,8.355109E3,9.663344E3,1.10255E4,6.6095938E3,2.514425E4,1.77695E4,1.89492E5,2.472E5,4.403E4,1.14848E5,1.408665E5,1.13454E5,2.25378E5,2.8486E4,0E0,2.8506226E1,1.2383203E2,8.499844E2,2.0427129E3,1.5876055E3,2.0829688E3,5.2144375E3,1.1748906E3,1.7839688E3,1.031725E4,7.02475E3,3.559125E3,6.90325E3,1.79056E5,1.86602E5,1.53582E5,3.38194E5,1.0305E3,1.67935E4,6.3089E4,5.9813E4,3.695375E4,6.3615E4,1.5731E4,3.8999E4,5.17215E4,1.33622E5,1.116375E4,2.07025E3,0E0,0E0,0E0,0E0,0E0,0E0,5.081328E2,3.1305957E2,3.1761719E1,2.3510742E2,0E0,3.1771875E2,5.99625E2,1.6579688E2,0E0,2.0341406E2,1E1,3.4772656E2,1.52625E3,1.0692375E4,0E0,1.51E2,1.625625E2,0E0,1.6871562E3,6.6222656E2,5.8328E4,1.974925E4,7.8282E4,3.8146E4,4.391E4,8.6088E4,2.307475E4,9.6768E4,0E0,0E0,7.2225E2,0E0,1.37055E4,1.56005E4,7.91475E3,4.776E3,1.93505E4,1.4982812E3,1.1150875E4,4.5246125E4,5.9765E3,1.3503281E3,1.5462E4,4.6785E3,1.451375E4,8.8675E3,9.45E1,1.12674E5,1.579075E4,0E0,0E0,1.668E3,0E0,0E0,0E0,3.8906006E1,0E0,0E0,0E0,0E0,0E0,0E0,8.4459375E2,0E0,0E0,0E0,0E0,0E0,0E0,0E0,0E0,0E0,0E0,0E0,1.329375E3,2.152125E3,0E0,0E0,0E0,0E0,1.5255E3,0E0,0E0,0E0,5.5686E4,8.114E3,1.998125E3,2.690175E4,2.14225E4,2.7299E4,3.8537E4,7.2667E4,3.40515E4,3.0074E4,7.5978E4,2.5214E4,0E0,3.817575E4,3.7047E4,3.423E4,0E0,0E0,0E0,1.70315E4,7.224E3,9.04425E3,0E0,0E0,2.332125E4,0E0,1.3086562E3,8.516875E2,6.984375E2,0E0,3.7209375E3,4.8758438E3,3.35375E3,8.288125E2,1.0650312E3,3.202E3,0E0,0E0,0E0,2.9555E3,0E0,0E0,1.4948E4,0E0,7.5095E3,0E0,0E0,0E0,4.2922E4,4.3474E4,3.2585E3,0E0,0E0,0E0,0E0,0E0,0E0,0E0,0E0,0E0,0E0,0E0,0E0,0E0,0E0,0E0,0E0,0E0,0E0,0E0,0E0,0E0,0E0,0E0,0E0,0E0,0E0,0E0,0E0,0E0,0E0,0E0,0E0,0E0,0E0,0E0,0E0,0E0,0E0,0E0,0E0,0E0,0E0,0E0,0E0,0E0,0E0,0E0,0E0,0E0,0E0,0E0,0E0,0E0,0E0,0E0,0E0,0E0,0E0,0E0,0E0,0E0,0E0,0E0,0E0,0E0,0E0,0E0,0E0,0E0,0E0,0E0,0E0,0E0,0E0,0E0,0E0,0E0,0E0,0E0,0E0,0E0],"parents":[2147483647,0,0,1,1,2,2,3,3,4,4,5,5,6,6,7,7,8,8,9,9,10,10,11,11,12,12,13,13,14,14,16,16,17,17,18,18,19,19,20,20,21,21,22,22,23,23,24,24,25,25,26,26,27,27,28,28,29,29,30,30,32,32,33,33,34,34,35,35,36,36,37,37,38,38,39,39,40,40,41,41,42,42,43,43,44,44,45,45,46,46,47,47,48,48,49,49,50,50,51,51,52,52,53,53,54,54,55,55,56,56,57,57,58,58,59,59,60,60,67,67,68,68,69,69,70,70,72,72,73,73,74,74,76,76,77,77,78,78,79,79,80,80,82,82,83,83,85,85,86,86,87,87,88,88,89,89,90,90,91,91,92,92,93,93,94,94,97,97,99,99,100,100,101,101,102,102,103,103,104,104,105,105,106,106,107,107,108,108,109,109,110,110,111,111,112,112,113,113,114,114,115,115,118,118,122,122,129,129,141,141,142,142,147,147,151,151,152,152,153,153,154,154,155,155,156,156,157,157,158,158,159,159,160,160,161,161,162,162,164,164,165,165,166,166,170,170,171,171,172,172,175,175,177,177,178,178,179,179,181,181,182,182,183,183,184,184,185,185,186,186,190,190,193,193,195,195,199,199,200,200,201,201],"right_children":[2,4,6,8,10,12,14,16,18,20,22,24,26,28,30,-1,32,34,36,38,40,42,44,46,48,50,52,54,56,58,60,-1,62,64,66,68,70,72,74,76,78,80,82,84,86,88,90,92,94,96,98,100,102,104,106,108,110,112,114,116,118,-1,-1,-1,-1,-1,-1,120,122,124,126,-1,128,130,132,-1,134,136,138,140,142,-1,144,146,-1,148,150,152,154,156,158,160,162,164,166,-1,-1,168,-1,170,172,174,176,178,180,182,184,186,188,190,192,194,196,198,200,202,-1,-1,204,-1,-1,-1,206,-1,-1,-1,-1,-1,-1,208,-1,-1,-1,-1,-1,-1,-1,-1,-1,-1,-1,210,212,-1,-1,-1,-1,214,-1,-1,-1,216,218,220,222,224,226,228,230,232,234,236,238,-1,240,242,244,-1,-1,-1,246,248,250,-1,-1,252,-1,254,256,258,-1,260,262,264,266,268,270,-1,-1,-1,272,-1,-1,274,-1,276,-1,-1,-1,278,280,282,-1,-1,-1,-1,-1,-1,-1,-1,-1,-1,-1,-1,-1,-1,-1,-1,-1,-1,-1,-1,-1,-1,-1,-1,-1,-1,-1,-1,-1,-1,-1,-1,-1,-1,-1,-1,-1,-1,-1,-1,-1,-1,-1,-1,-1,-1,-1,-1,-1,-1,-1,-1,-1,-1,-1,-1,-1,-1,-1,-1,-1,-1,-1,-1,-1,-1,-1,-1,-1,-1,-1,-1,-1,-1,-1,-1,-1,-1,-1,-1,-1],"split_conditions":[4.684E1,-6.006693E-1,7.150729E-1,-6.5439236E-1,3.391E1,1.9367945E0,2.2505796E-1,-6.812086E-1,1.5612347E0,1.4998198E0,1.3521625E0,2.3507777E-1,3.655811E-1,-4.5557082E-1,4.05E1,-2.3749007E-2,-5.854107E-1,-5.4830647E-1,8.535E0,3.291E1,1.7425E1,2.795E2,1.905E2,1.15E1,7.502723E-2,1.2357466E-1,1.6476953E0,5.8074997E1,-5.271316E-2,6.141E1,3.025E2,9.464094E-1,1.6262795E0,1.4420345E0,1.523776E0,1.6129221E0,1.5818516E0,1.4302742E0,1.436953E0,1.5661712E0,1.5234857E0,6.05E1,1.2386246E0,-5.3939812E-2,1.4639581E0,1.1949656E0,2.990169E-1,5.7565117E-1,1.4500001E-1,4.328253E-1,4.036423E-1,3.317737E-1,6.892834E-1,1.2927802E0,5.7380056E-1,1.3659555E0,3.65E1,1.0779004E0,1.3499999E-1,1.0159047E0,1.01242E0,1.7754637E-1,1.2940627E-1,1.9462303E0,1.4615228E0,1.200345E0,8.8365334E-1,1.6007262E0,1.621343E0,1.5757537E0,1.5946282E0,1.6174806E0,-2.9731378E-1,2.2533438E-1,2.831E-1,7.6301974E-1,1.583739E0,-1.5021223E-1,1.5528138E0,1.2177174E0,7.873211E-1,2.3242443E0,6.7380375E-1,3.7035E1,1.7886232E0,-6.5618284E-2,1.5098379E0,-3.06347E-1,8.43E1,5.1396644E-1,7.890802E-1,4.699937E-1,5.5551004E-1,1.0716839E0,5.4491127E-1,3.3586686E0,2.9543216E0,2.3450434E-1,3.600024E0,9.7025585E-1,7.2743577E-1,5.499929E-1,1.95E1,2.8203195E-1,1.4288223E0,6.3844997E1,1.0780456E0,-2.1575594E-1,1.4333231E0,8.311685E-2,1.0908222E0,1.9707963E-1,7.0649994E1,7.07281E-1,-1.3567588E-1,5.7966816E-1,2.643004E0,2.8790708E0,-1.00633726E-1,4.3745652E-1,3.093419E-1,2.2964923E-1,3.35E1,6.518108E-1,5.556981E-1,4.7897562E-1,3.792434E-1,1.4243827E0,1.2762235E0,5.35E1,1.6698538E0,1.5455498E0,1.2764004E0,5.7209134E-1,3.673589E-1,1.1627953E0,1.0180949E0,9.351555E-1,7.136942E-1,2.5782084E0,2.2649772E0,2.25E1,-9.413664E-2,2.0401986E0,1.8152033E0,1.9008465E0,2.1823235E0,2.785E2,1.5249695E0,1.3331214E0,1.00118E0,1.08081095E-1,2.3763501E2,1.46785E2,3.05E1,3.1943506E-1,3.6210923E0,2.1059103E0,1.4500001E-1,2.425E2,4.45E-1,1.95E-1,2.625E2,5.189932E0,1.6383266E0,1.5812626E0,2.455E2,3.9569783E0,4.3859878E0,4.869962E0,-3.0027163E-1,2.62E2,3.55E1,5.211382E0,4.2333636E0,1.975E2,5.608509E0,3.235E2,4.49E1,3.5E0,1.6387894E0,5.4824997E1,-4.1086537E-1,2.865E2,4.6285E1,4.5055E1,2.505E2,1.8549643E0,1.3793923E0,2.8313534E0,2.35E1,2.7107837E0,2.3760874E0,3.55E1,3.5005524E0,6.85E1,3.5637212E0,5.5105495E0,6.830176E0,7.9509995E1,5.297982E-1,-1.4377376E0,3.0292633E0,2.382872E0,2.6940782E0,2.6786113E-2,1.6068812E-1,1.7299856E0,2.0161178E0,3.0716972E0,2.6326678E0,1.9386488E0,2.5870457E0,1.9617436E0,1.6262022E0,4.7305374E0,8.366773E0,5.7380767E0,7.507764E0,6.5424104E0,2.5080109E0,7.794164E0,1.0228314E1,7.475241E0,3.4820383E0,9.023339E0,7.1041765E0,6.3550105E0,9.573735E0,1.0192533E1,7.15315E0,6.565104E0,4.7922773E0,5.343148E0,6.509781E0,7.0388575E0,9.2194395E0,6.344621E0,4.4766307E0,7.4472604E0,1.01724205E1,5.377256E0,6.297809E0,4.922204E0,3.9002712E0,4.09778E0,5.571874E0,4.218546E0,3.2101045E0,4.8735595E0,3.8561351E0,5.570846E0,6.8368073E0,3.072739E0,2.407416E0,1.5972278E0,4.1495748E0,2.421801E0,1.8608086E0,2.458811E0,3.400163E0,3.4573078E0,4.6707854E0,6.152246E0,2.7229412E0,2.3922937E0,4.247586E0,2.1477926E0,2.8413997E0,2.362737E0,2.07954E0,2.6871517E0,3.2402344E0,3.1373332E0,4.287494E0,2.83322E0,3.3498847E0,4.335586E0,5.0116854E0,3.6566727E0,4.194316E0,1.9726733E0,3.7828927E0],"split_indices":[12,4,9,2,12,3,2,2,9,9,9,9,2,3,29,0,3,3,19,19,19,27,27,22,3,2,8,19,2,15,27,0,9,9,9,9,9,9,9,9,9,27,9,3,9,1,3,1,0,9,9,9,2,9,1,9,29,9,0,9,9,0,0,0,0,0,0,9,9,9,9,0,3,3,3,0,9,3,9,9,3,0,7,19,0,3,9,3,12,1,1,9,9,2,9,0,0,2,0,2,2,9,28,1,9,17,9,3,9,2,9,3,12,2,3,4,0,0,5,0,0,0,27,0,0,0,0,0,0,27,0,0,0,0,0,0,0,0,0,0,0,28,2,0,0,0,0,27,0,0,0,1,17,15,29,6,2,8,0,27,0,0,27,0,8,8,27,0,0,0,1,27,29,0,0,27,0,27,15,24,0,21,8,27,16,15,27,0,0,0,27,0,0,27,0,27,0,0,0,17,2,1,0,0,0,0,0,0,0,0,0,0,0,0,0,0,0,0,0,0,0,0,0,0,0,0,0,0,0,0,0,0,0,0,0,0,0,0,0,0,0,0,0,0,0,0,0,0,0,0,0,0,0,0,0,0,0,0,0,0,0,0,0,0,0,0,0,0,0,0,0,0,0,0,0,0,0,0,0,0,0,0,0],"split_type":[0,0,0,0,0,0,0,0,0,0,0,0,0,0,0,0,0,0,0,0,0,0,0,0,0,0,0,0,0,0,0,0,0,0,0,0,0,0,0,0,0,0,0,0,0,0,0,0,0,0,0,0,0,0,0,0,0,0,0,0,0,0,0,0,0,0,0,0,0,0,0,0,0,0,0,0,0,0,0,0,0,0,0,0,0,0,0,0,0,0,0,0,0,0,0,0,0,0,0,0,0,0,0,0,0,0,0,0,0,0,0,0,0,0,0,0,0,0,0,0,0,0,0,0,0,0,0,0,0,0,0,0,0,0,0,0,0,0,0,0,0,0,0,0,0,0,0,0,0,0,0,0,0,0,0,0,0,0,0,0,0,0,0,0,0,0,0,0,0,0,0,0,0,0,0,0,0,0,0,0,0,0,0,0,0,0,0,0,0,0,0,0,0,0,0,0,0,0,0,0,0,0,0,0,0,0,0,0,0,0,0,0,0,0,0,0,0,0,0,0,0,0,0,0,0,0,0,0,0,0,0,0,0,0,0,0,0,0,0,0,0,0,0,0,0,0,0,0,0,0,0,0,0,0,0,0,0,0,0,0,0,0,0,0,0,0,0,0,0,0,0,0,0,0,0,0,0,0,0,0,0,0,0],"sum_hessian":[4.6905E4,2.9453E4,1.7452E4,2.4774E4,4.679E3,8.338E3,9.114E3,2.2862E4,1.912E3,1.992E3,2.687E3,5.206E3,3.132E3,3.736E3,5.378E3,2.2684E4,1.78E2,2.06E2,1.706E3,1.221E3,7.71E2,1.58E3,1.107E3,1.8E3,3.406E3,1.022E3,2.11E3,6.92E2,3.044E3,4.234E3,1.144E3,2E0,1.76E2,5.3E1,1.53E2,1.155E3,5.51E2,6.02E2,6.19E2,2.36E2,5.35E2,8.2E2,7.6E2,5.1E2,5.97E2,6.63E2,1.137E3,1.687E3,1.719E3,3.16E2,7.06E2,1.397E3,7.13E2,3.74E2,3.18E2,9.63E2,2.081E3,1.148E3,3.086E3,5.48E2,5.96E2,1.1E2,6.6E1,2.5E1,2.8E1,4.1E1,1.12E2,4.71E2,6.84E2,2.19E2,3.32E2,1.27E2,4.75E2,4.15E2,2.04E2,1.54E2,8.2E1,2.48E2,2.87E2,4.43E2,3.77E2,3.42E2,4.18E2,3.01E2,2.09E2,4.42E2,1.55E2,5.2E2,1.43E2,5.62E2,5.75E2,9.33E2,7.54E2,1.29E2,1.59E3,1.8E2,1.36E2,4.16E2,2.9E2,7.66E2,6.31E2,3.1E2,4.03E2,2.08E2,1.66E2,1.61E2,1.57E2,7.65E2,1.98E2,1.431E3,6.5E2,5.46E2,6.02E2,8.8E1,2.998E3,4.38E2,1.1E2,1.55E2,4.41E2,1.09E2,3.62E2,4.36E2,2.48E2,1.43E2,7.6E1,2.06E2,1.26E2,2.29E2,2.46E2,2.84E2,1.31E2,1.58E2,4.6E1,5.6E1,2.6E1,1.5E2,9.8E1,2.48E2,3.9E1,1.39E2,3.04E2,2.79E2,9.8E1,3.01E2,1.17E2,8.4E1,2.17E2,2.5E2,1.92E2,1.17E2,3.8E1,7.4E1,4.46E2,2.9E1,1.14E2,1.91E2,3.71E2,3.17E2,2.58E2,3.43E2,5.9E2,4.14E2,3.4E2,1.4E1,1.15E2,8.87E2,7.03E2,2.1E2,2.06E2,4.13E2,3.53E2,3.23E2,3.08E2,2.53E2,5.7E1,2.48E2,1.55E2,1.46E2,6.2E1,1.46E2,2E1,8.5E1,7.6E1,7E1,8.7E1,1.11E2,6.54E2,1.64E2,3.4E1,7.1E2,7.21E2,2.94E2,3.56E2,2.98E2,2.48E2,4.68E2,1.34E2,4.2E1,4.6E1,1.132E3,1.866E3,1.63E2,2.75E2,2.06E2,2.35E2,6E0,2.42E2,1.2E2,1.64E2,1.88E2,9.1E1,5.4E1,4.4E1,1.08E2,1.42E2,1.9E1,5.5E1,4.29E2,1.7E1,2.7E1,2E0,8.2E1,3.2E1,1.85E2,6E0,3.27E2,4.4E1,3.04E2,1.3E1,2.8E1,2.3E2,2.98E2,4.5E1,4.99E2,9.1E1,3.55E2,5.9E1,3.09E2,3.1E1,8.7E1,2.8E1,7.04E2,1.83E2,5.78E2,1.25E2,3.6E1,3.17E2,2.85E2,3.8E1,2.57E2,5.1E1,1.06E2,1.42E2,1.12E2,3.4E1,2E0,6E1,1.19E2,2.7E1,3.4E1,5.1E1,4.2E1,3.4E1,6.7E1,3E0,5E0,8.2E1,2.6E1,8.5E1,3.61E2,2.93E2,6.2E1,6.59E2,4.8E1,2.5E2,3.13E2,1.55E2,6.06E2,5.26E2,6.75E2,1.191E3,6E0,1.57E2],"tree_param":{"num_deleted":"0","num_feature":"30","num_nodes":"283","size_leaf_vector":"0"}},{"base_weights":[3.546688E1,4.535738E0,8.395846E1,3.0643055E-1,3.1900013E1,6.102092E1,9.884891E1,-2.0043632E-1,1.1446903E1,2.0656702E1,3.7314007E1,5.2191982E1,7.2604004E1,8.924915E1,1.2502853E2,-4.51029E-1,5.0068383E0,8.427819E0,1.6367334E1,1.4406294E1,2.446901E1,3.388595E1,4.31475E1,4.477898E1,5.868886E1,6.1614895E1,8.487613E1,7.10555E1,9.891979E1,9.916859E1,1.4841966E2,-4.512322E-1,5.6028247E-1,3.0099478E1,4.293292E0,1.2647772E1,6.8699713E0,1.9559706E1,1.1605024E1,2.0177467E1,1.1014367E1,2.633855E1,1.7860203E1,3.647786E1,2.805888E1,4.8623985E1,3.9522835E1,4.769626E1,3.6126884E1,6.442013E1,4.9218445E1,5.6316544E1,6.7368546E1,1.0302857E2,7.3534836E1,8.0007774E1,6.3514038E1,1.09253075E2,8.513039E1,1.1859848E2,8.123462E1,1.657285E2,1.3170569E2,4.0573257E1,2.2833927E1,1.1106161E1,4.0502963E0,1.5063837E1,1.0935803E1,8.161883E0,6.1140285E0,2.2765898E1,1.8030153E1,1.3563379E1,8.832703E0,2.6001328E1,1.8259277E1,1.3070109E1,9.108208E0,2.7120441E1,2.2971954E1,1.9123205E1,1.3930039E1,4.0674404E1,3.399108E1,2.9114622E1,1.5651959E1,4.742401E1,6.9855446E1,4.109141E1,3.296435E1,4.645071E1,6.469743E1,3.776801E1,2.8570253E1,7.77472E1,6.033444E1,5.689054E1,4.7634933E1,5.482069E1,7.508464E1,8.39803E1,6.3403225E1,9.6532906E1,1.26149864E2,6.9812004E1,9.881903E1,1.2652578E2,7.7628E1,7.9388336E1,6.0126675E1,1.2440848E2,1.0374803E2,8.914965E1,6.873159E1,1.5433455E2,1.06121376E2,7.368744E1,1.0513704E2,1.5762703E2,2.1437894E2,1.1639373E2,1.5581569E2,8.947809E0,1.2992096E1,3.179021E0,4.6503425E0,2.3630165E1,1.4348922E1,7.182579E0,9.669505E0,2.8198736E1,2.4412424E1,2.0458862E1,1.6268456E1,3.5446877E1,4.2286545E1,3.301681E1,3.8121326E1,2.7839916E1,3.3045856E1,6.1935716E0,1.5970039E1,4.5879913E1,5.6256466E1,3.964831E1,5.089742E1,5.4014732E1,4.4562233E1,4.1983517E1,3.5359814E1,2.0282263E1,3.0067928E1,9.366051E1,7.030987E1,5.7384857E1,7.680537E1,3.7604248E1,4.8097492E1,5.627724E1,4.5617363E1,7.0371284E1,9.663835E1,5.408516E1,6.981115E1,1.0939385E2,9.078233E1,1.3246947E2,1.0175145E2,7.174615E1,5.3054806E1,9.323863E1,1.6242711E2,6.796952E1,8.4885216E1,8.571657E1,6.105888E1,5.187446E1,6.606281E1,1.14829254E2,1.3054262E2,9.839575E1,1.14641174E2,1.1441437E2,8.739741E1,6.735945E1,1.0684853E2,1.4109247E2,1.8587968E2,8.318869E1,1.1123215E2,6.244814E1,8.191488E1,8.839972E1,1.137625E2,1.5227167E2,1.7877719E2,1.2166706E2,2.17764E2,1.0854186E2,1.24317406E2,1.4310045E2,1.7367346E2,3.6614633E0,2.7603672E0,5.47095E0,4.1230702E0,7.3204894E0,3.0415242E0,3.201558E1,4.013656E1,3.3724205E1,4.317842E1,3.4522713E1,2.9914766E1,2.921491E1,2.6046198E1,1.9072947E1,1.2847328E1,4.1770126E1,3.622383E1,7.883581E1,5.0946156E1,4.0906593E1,4.7403667E1,4.703529E1,3.880197E1,3.1043364E1,3.7290016E1,1.0888829E2,7.896408E1,7.834202E1,5.731501E1,6.2718452E1,5.4317955E1,8.90915E1,6.992378E1,4.8828876E1,4.253581E1,6.2446705E1,5.326967E1,2.6392532E1,7.183717E1,1.3218855E2,8.1023674E1,4.4710743E1,5.6173645E1,5.750865E1,7.216551E1,9.478283E1,1.2640132E2,8.439059E1,1.0329982E2,1.531719E2,1.2101885E2,5.6141514E1,7.3531E1,7.142653E1,1.1610552E2,1.7292575E2,5.6203766E1,6.1881683E1,7.238088E1,8.891203E1,7.6117455E1,1.0587018E2,7.864885E1,6.905138E1,4.826069E1,4.4580727E1,5.4541706E1,6.801437E1,5.2990253E1,4.7408394E1,1.1553043E2,1.2172353E2,1.5013908E2,1.0339377E2,8.421341E1,1.1959502E2,9.543243E1,1.04837494E2,1.6711893E2,8.386457E1,9.721378E1,7.232578E1,5.8506477E1,1.23856575E2,1.553622E2,1.9984402E2,1.2733302E2,5.4244984E1,8.555936E1,1.24348434E2,1.0397056E2,6.407425E1,4.7066124E1,8.505092E1,6.5443886E1,9.416042E1,6.1100048E1,1.1961931E2,8.589833E1,1.621674E2,1.3871803E2,1.6155174E2,2.1220375E2,1.1290814E2,8.838194E1,1.3273953E2,1.089928E2,1.4521744E2,7.811008E1,1.7514026E2,5.662128E1],"categories":[],"categories_nodes":[],"categories_segments":[],"categories_sizes":[],"default_left":[1,1,1,1,0,1,0,1,1,1,1,1,1,1,1,1,1,1,1,1,1,1,1,1,1,0,1,1,1,1,1,0,0,1,1,1,1,1,1,1,1,1,1,1,1,0,1,0,1,1,1,0,1,0,0,1,1,1,1,1,0,0,0,0,0,1,0,1,0,0,0,0,0,0,0,0,0,0,0,1,0,1,0,0,0,0,1,0,0,0,0,1,0,1,0,1,0,0,0,1,0,0,1,1,1,1,0,1,1,0,1,1,0,1,1,0,1,1,0,1,1,1,0,0,0,1,1,0,0,1,0,0,0,0,0,1,1,1,0,1,0,0,1,0,0,1,0,1,1,1,1,0,0,1,1,1,1,0,1,1,0,0,1,1,0,1,1,1,0,1,0,1,1,1,1,1,1,1,1,1,1,1,1,1,1,1,0,1,1,1,1,1,1,1,1,1,1,0,0,1,1,1,1,0,0,0,0,0,0,0,0,0,0,0,0,0,0,0,0,0,0,0,0,0,0,0,0,0,0,0,0,0,0,0,0,0,0,0,0,0,0,0,0,0,0,0,0,0,0,0,0,0,0,0,0,0,0,0,0,0,0,0,0,0,0,0,0,0,0,0,0,0,0,0,0,0,0,0,0,0,0,0,0,0,0,0,0,0,0,0,0,0,0,0,0,0,0,0,0,0,0,0,0,0,0,0,0,0,0,0,0,0,0,0,0],"id":2,"left_children":[1,3,5,7,9,11,13,15,17,19,21,23,25,27,29,31,33,35,37,39,41,43,45,47,49,51,53,55,57,59,61,-1,-1,63,65,67,69,71,73,75,77,79,81,83,85,87,89,91,93,95,97,99,101,103,105,107,109,111,113,115,117,119,121,-1,-1,123,125,127,-1,-1,-1,-1,-1,-1,-1,-1,-1,-1,129,131,-1,133,-1,135,137,139,141,143,-1,145,-1,147,-1,149,151,153,155,-1,157,159,-1,161,163,165,167,169,-1,171,173,175,177,179,181,183,185,187,189,191,193,195,197,199,201,-1,-1,203,205,-1,-1,207,-1,-1,-1,-1,-1,209,211,213,-1,215,-1,-1,217,-1,-1,219,-1,221,223,225,227,-1,-1,229,231,233,235,-1,237,239,-1,241,243,245,247,249,251,253,-1,255,-1,257,259,261,263,265,267,269,271,273,275,277,279,281,283,285,-1,287,289,291,293,295,297,299,301,303,305,-1,-1,307,309,311,313,-1,-1,-1,-1,-1,-1,-1,-1,-1,-1,-1,-1,-1,-1,-1,-1,-1,-1,-1,-1,-1,-1,-1,-1,-1,-1,-1,-1,-1,-1,-1,-1,-1,-1,-1,-1,-1,-1,-1,-1,-1,-1,-1,-1,-1,-1,-1,-1,-1,-1,-1,-1,-1,-1,-1,-1,-1,-1,-1,-1,-1,-1,-1,-1,-1,-1,-1,-1,-1,-1,-1,-1,-1,-1,-1,-1,-1,-1,-1,-1,-1,-1,-1,-1,-1,-1,-1,-1,-1,-1,-1,-1,-1,-1,-1,-1,-1,-1,-1,-1,-1,-1,-1,-1,-1,-1,-1,-1,-1,-1,-1,-1],"loss_changes":[7.044843E7,3.3189505E6,6.241608E6,1.4026722E5,2.3291375E5,7.32834E5,2.775952E6,3.1006799E4,1.5920531E4,2.9433062E4,5.033125E4,1.94401E5,4.14588E5,1.421284E6,1.783624E6,4.911133E0,1.9404863E4,4.330867E3,6.0062656E3,9.095648E3,9.1050625E3,2.3685375E4,1.7035375E4,4.661225E4,1.149915E5,4.63845E4,2.94644E5,1.85374E5,7.45612E5,4.8343E5,4.29196E5,0E0,0E0,1.3564863E3,1.7131562E3,5.797871E2,4.315664E2,7.861172E2,7.868711E2,1.4802109E3,1.0643672E3,9.6165625E2,5.973164E2,1.03995E4,6.1983438E3,6.266625E3,4.6121875E3,2.725525E4,4.960375E3,6.898E4,7.312875E3,2.0112E4,4.6318E4,7.22285E4,7.8476E4,1.32542E5,7.78195E4,2.39472E5,1.43756E5,2.85485E5,1.25565E5,2.66542E5,2.76463E5,0E0,0E0,3.0287598E1,5.221367E2,1.0187402E2,0E0,0E0,0E0,0E0,0E0,0E0,0E0,0E0,0E0,0E0,1.034834E2,7.2196875E2,0E0,1.5904297E2,0E0,1.9985625E3,1.6185625E3,1.4202188E3,2.7447266E1,2.3150625E3,0E0,4.548E3,0E0,1.666275E4,0E0,2.54575E3,5.1971094E2,3.05775E4,4.611825E4,0E0,1.39275E3,8.197E3,0E0,1.8694375E4,3.425925E4,2.2832E4,5.023625E3,2.192775E4,0E0,5.7753812E4,8.01645E4,2.5736375E4,5.8786E4,3.2077E4,1.18444E5,7.0704E4,1.6443E4,4.603975E4,4.99345E4,4.713075E4,1.5207625E4,4.7194E4,6.7715E3,1.71165E4,4.48565E4,0E0,0E0,7.512744E1,2.3964844E2,0E0,0E0,5.7836914E-1,0E0,0E0,0E0,0E0,0E0,3.8853125E2,9.264375E2,1.7046875E3,0E0,1.245E2,0E0,0E0,1.4254297E2,0E0,0E0,1.4588125E3,0E0,1.59389375E4,9.21675E3,4.09E2,1.00028125E3,0E0,0E0,1.310975E4,1.8263875E4,1.1086E4,6.875375E3,0E0,5.91375E2,9.458E3,0E0,2.939125E3,3.0367438E4,2.657125E3,6.68275E3,2.0821E4,1.624525E4,3.2725E3,0E0,1.5619E4,0E0,8.6653125E3,2.15065E4,9.78125E3,1.7805E4,1.9591625E4,4.032375E3,7.995875E3,1.514725E4,9.6985E3,6.4852E4,9.7547E4,5.7766E4,4.0525375E4,5.1114E4,1.507E4,0E0,1.17475E4,1.379625E4,1.9459375E3,2.6122E4,3.062375E3,1.1118E4,4.31175E3,8.00275E3,4.8724E4,3.884325E4,0E0,0E0,1.2467E4,1.625E4,1.411E4,1.12015E4,0E0,0E0,0E0,0E0,0E0,0E0,0E0,0E0,0E0,0E0,0E0,0E0,0E0,0E0,0E0,0E0,0E0,0E0,0E0,0E0,0E0,0E0,0E0,0E0,0E0,0E0,0E0,0E0,0E0,0E0,0E0,0E0,0E0,0E0,0E0,0E0,0E0,0E0,0E0,0E0,0E0,0E0,0E0,0E0,0E0,0E0,0E0,0E0,0E0,0E0,0E0,0E0,0E0,0E0,0E0,0E0,0E0,0E0,0E0,0E0,0E0,0E0,0E0,0E0,0E0,0E0,0E0,0E0,0E0,0E0,0E0,0E0,0E0,0E0,0E0,0E0,0E0,0E0,0E0,0E0,0E0,0E0,0E0,0E0,0E0,0E0,0E0,0E0,0E0,0E0,0E0,0E0,0E0,0E0,0E0,0E0,0E0,0E0,0E0,0E0,0E0,0E0,0E0,0E0,0E0,0E0,0E0,0E0,0E0,0E0,0E0,0E0],"parents":[2147483647,0,0,1,1,2,2,3,3,4,4,5,5,6,6,7,7,8,8,9,9,10,10,11,11,12,12,13,13,14,14,15,15,16,16,17,17,18,18,19,19,20,20,21,21,22,22,23,23,24,24,25,25,26,26,27,27,28,28,29,29,30,30,33,33,34,34,35,35,36,36,37,37,38,38,39,39,40,40,41,41,42,42,43,43,44,44,45,45,46,46,47,47,48,48,49,49,50,50,51,51,52,52,53,53,54,54,55,55,56,56,57,57,58,58,59,59,60,60,61,61,62,62,65,65,66,66,67,67,78,78,79,79,81,81,83,83,84,84,85,85,86,86,87,87,89,89,91,91,93,93,94,94,95,95,96,96,98,98,99,99,101,101,102,102,103,103,104,104,105,105,107,107,108,108,109,109,110,110,111,111,112,112,113,113,114,114,115,115,116,116,117,117,118,118,119,119,120,120,121,121,122,122,125,125,126,126,129,129,135,135,136,136,137,137,139,139,142,142,145,145,147,147,148,148,149,149,150,150,153,153,154,154,155,155,156,156,158,158,159,159,161,161,162,162,163,163,164,164,165,165,166,166,167,167,169,169,171,171,172,172,173,173,174,174,175,175,176,176,177,177,178,178,179,179,180,180,181,181,182,182,183,183,184,184,185,185,187,187,188,188,189,189,190,190,191,191,192,192,193,193,194,194,195,195,196,196,199,199,200,200,201,201,202,202],"right_children":[2,4,6,8,10,12,14,16,18,20,22,24,26,28,30,32,34,36,38,40,42,44,46,48,50,52,54,56,58,60,62,-1,-1,64,66,68,70,72,74,76,78,80,82,84,86,88,90,92,94,96,98,100,102,104,106,108,110,112,114,116,118,120,122,-1,-1,124,126,128,-1,-1,-1,-1,-1,-1,-1,-1,-1,-1,130,132,-1,134,-1,136,138,140,142,144,-1,146,-1,148,-1,150,152,154,156,-1,158,160,-1,162,164,166,168,170,-1,172,174,176,178,180,182,184,186,188,190,192,194,196,198,200,202,-1,-1,204,206,-1,-1,208,-1,-1,-1,-1,-1,210,212,214,-1,216,-1,-1,218,-1,-1,220,-1,222,224,226,228,-1,-1,230,232,234,236,-1,238,240,-1,242,244,246,248,250,252,254,-1,256,-1,258,260,262,264,266,268,270,272,274,276,278,280,282,284,286,-1,288,290,292,294,296,298,300,302,304,306,-1,-1,308,310,312,314,-1,-1,-1,-1,-1,-1,-1,-1,-1,-1,-1,-1,-1,-1,-1,-1,-1,-1,-1,-1,-1,-1,-1,-1,-1,-1,-1,-1,-1,-1,-1,-1,-1,-1,-1,-1,-1,-1,-1,-1,-1,-1,-1,-1,-1,-1,-1,-1,-1,-1,-1,-1,-1,-1,-1,-1,-1,-1,-1,-1,-1,-1,-1,-1,-1,-1,-1,-1,-1,-1,-1,-1,-1,-1,-1,-1,-1,-1,-1,-1,-1,-1,-1,-1,-1,-1,-1,-1,-1,-1,-1,-1,-1,-1,-1,-1,-1,-1,-1,-1,-1,-1,-1,-1,-1,-1,-1,-1,-1,-1,-1,-1],"split_conditions":[4.389E1,1.7064999E1,7.2685E1,6.635E0,3.0465E1,6.2489998E1,9.3965E1,-6.230308E-1,-5.601396E-1,-5.0425136E-1,-1.646361E-1,9.70958E-2,5.929835E-1,5.9649515E-1,1.234621E0,3.3525825E-1,1.5339391E0,1.5864977E0,1.5499101E0,1.5522331E0,1.5070792E0,1.4317261E0,1.2659202E0,1.3578249E0,2.935E2,6.4125E1,7.372868E-1,6.298469E-1,5.196484E-1,8.6374646E-1,3.0897903E-1,-2.256161E-2,2.8014123E-2,1.4138678E0,1.5994195E0,1.5705268E0,1.6001455E0,1.516081E0,1.5760441E0,1.506063E0,1.5743017E0,1.4886402E0,1.5374238E0,-4.1090956E-1,1.5054822E0,1.02325E2,1.3912184E0,1.23259995E2,2.665E2,9.2966235E-1,9.752517E-1,1.3233499E2,-3.5528028E-1,8.075E1,1.04815E2,-4.6611392E-1,-3.744371E-1,2.2401307E-2,2.615E2,-3.2403505E-1,1.7044E2,1.6386E2,1.395E2,2.028663E0,1.1416963E0,-5.630262E-1,4.685E0,-5.288676E-1,5.467902E-1,4.0809417E-1,3.0570143E-1,1.1382949E0,9.015077E-1,6.7816895E-1,4.4163513E-1,1.3000664E0,9.1296387E-1,6.535055E-1,8.16E0,3.0696064E-1,1.1485977E0,2.935E2,6.96502E-1,3.52E1,1.02100006E2,1.15975006E2,-5.907833E-1,5.9025E1,3.4927723E0,8.405E1,1.6482176E0,-3.9104217E-1,3.2348716E0,-4.204533E-1,2.6875E1,-1.0926615E-1,9.586E1,2.844527E0,3.984E1,2.975E2,3.7542322E0,6.9185E1,1.4843607E-1,-1.7100918E-1,7.177206E-1,2.945E2,4.940952E0,1.9980405E-1,2.4061862E-1,1.885E0,1.6270043E-1,4.174136E-1,7.009E1,-4.3044984E-1,1.5486E2,1.3592499E2,4.9843132E-1,3.049025E-1,7.2435E1,2.105E2,-1.3065884E0,1.9214065E0,1.78275E2,4.4739047E-1,6.496048E-1,1.6242468E0,1.6137933E0,1.1815083E0,7.174461E-1,1.6103086E0,4.8347527E-1,1.4099368E0,1.2206212E0,1.0229431E0,8.134228E-1,1.3954028E-1,-1.4068953E0,1.4038498E0,1.9060663E0,1.4540852E0,1.6522928E0,3.0967858E-1,1.5390208E0,2.2939956E0,2.8128233E0,3.95E1,2.544871E0,1.0235996E0,-7.266435E-2,1.3980422E0,-3.2585084E-1,1.0141132E0,1.5033964E0,2.0667088E-1,2.61E2,1.0961941E0,1.129152E0,1.8802124E0,1.1978265E0,1.0432003E0,2.2808683E0,3.946E1,7.036029E-1,-7.072757E-2,5.814E1,3.6222208E-1,2.0588427E0,4.7202635E-1,5.0875726E0,3.25E1,2.6527402E0,1.4227884E-1,1.6119618E0,1.10088274E-1,3.9754435E-1,8.8145953E-1,1.0019665E0,-1.9772664E-2,2.685E2,-1.2814415E0,1.1419168E0,9.8412275E-1,3.0781752E-1,1.3954408E0,1.8854293E0,8.245454E-1,5.342427E0,4.8810476E-1,1.6119618E0,1.9209981E-1,2.9634756E-1,1.2515464E0,1.0802233E0,1.2191694E0,1.1182629E0,6.0996078E-2,2.0135E3,6.083353E0,1.0888201E1,7.9594314E-1,5.296664E-1,8.7695867E-1,2.3813987E0,1.8307316E-1,1.3801835E-1,2.735475E-1,2.0615351E-1,3.6602446E-1,1.5207621E-1,1.6007789E0,2.006828E0,1.6862103E0,2.158921E0,1.7261356E0,1.4957384E0,1.4607456E0,1.3023099E0,9.536473E-1,6.423664E-1,2.0885065E0,1.8111916E0,3.9417903E0,2.5473077E0,2.0453298E0,2.3701835E0,2.3517644E0,1.9400986E0,1.5521683E0,1.8645009E0,5.4444146E0,3.948204E0,3.917101E0,2.8657506E0,3.1359227E0,2.7158978E0,4.454575E0,3.496189E0,2.441444E0,2.1267905E0,3.1223352E0,2.6634834E0,1.3196267E0,3.5918586E0,6.609428E0,4.0511837E0,2.2355373E0,2.8086822E0,2.8754327E0,3.6082757E0,4.7391415E0,6.320066E0,4.2195296E0,5.164991E0,7.6585956E0,6.050943E0,2.8070757E0,3.67655E0,3.5713265E0,5.8052764E0,8.646288E0,2.8101883E0,3.0940843E0,3.619044E0,4.445602E0,3.8058727E0,5.293509E0,3.9324424E0,3.4525688E0,2.4130344E0,2.2290363E0,2.7270854E0,3.4007187E0,2.6495128E0,2.3704197E0,5.7765217E0,6.086177E0,7.506954E0,5.1696887E0,4.2106705E0,5.979751E0,4.771621E0,5.2418747E0,8.355947E0,4.1932287E0,4.860689E0,3.6162891E0,2.925324E0,6.1928287E0,7.76811E0,9.992202E0,6.366651E0,2.7122493E0,4.277968E0,6.217422E0,5.198528E0,3.2037125E0,2.3533063E0,4.252546E0,3.2721944E0,4.708021E0,3.0550025E0,5.9809656E0,4.2949166E0,8.108371E0,6.9359016E0,8.077587E0,1.0610188E1,5.645407E0,4.4190974E0,6.6369767E0,5.44964E0,7.260872E0,3.905504E0,8.757013E0,2.831064E0],"split_indices":[12,13,13,19,19,19,11,3,2,2,2,2,2,2,2,9,9,9,9,9,9,9,9,9,27,12,9,9,9,9,9,0,0,9,9,9,9,9,9,9,9,9,9,3,9,11,9,11,27,9,9,11,3,11,11,3,3,3,27,3,11,11,11,0,0,2,19,3,0,0,0,0,0,0,0,0,0,0,19,3,0,27,0,19,11,11,2,15,0,11,0,3,0,3,19,3,11,0,19,27,0,16,2,3,3,27,0,8,2,11,2,8,11,3,19,18,2,2,18,27,7,2,11,0,0,9,9,0,0,9,0,0,0,0,0,1,1,9,0,9,0,0,9,0,0,29,0,9,2,9,2,0,0,10,27,9,9,0,9,9,0,15,9,2,15,1,2,9,0,27,0,2,10,2,9,9,9,2,27,10,1,10,9,1,2,9,0,8,10,2,9,9,9,9,9,9,26,0,0,9,9,9,10,0,0,0,0,0,0,0,0,0,0,0,0,0,0,0,0,0,0,0,0,0,0,0,0,0,0,0,0,0,0,0,0,0,0,0,0,0,0,0,0,0,0,0,0,0,0,0,0,0,0,0,0,0,0,0,0,0,0,0,0,0,0,0,0,0,0,0,0,0,0,0,0,0,0,0,0,0,0,0,0,0,0,0,0,0,0,0,0,0,0,0,0,0,0,0,0,0,0,0,0,0,0,0,0,0,0,0,0,0,0,0,0],"split_type":[0,0,0,0,0,0,0,0,0,0,0,0,0,0,0,0,0,0,0,0,0,0,0,0,0,0,0,0,0,0,0,0,0,0,0,0,0,0,0,0,0,0,0,0,0,0,0,0,0,0,0,0,0,0,0,0,0,0,0,0,0,0,0,0,0,0,0,0,0,0,0,0,0,0,0,0,0,0,0,0,0,0,0,0,0,0,0,0,0,0,0,0,0,0,0,0,0,0,0,0,0,0,0,0,0,0,0,0,0,0,0,0,0,0,0,0,0,0,0,0,0,0,0,0,0,0,0,0,0,0,0,0,0,0,0,0,0,0,0,0,0,0,0,0,0,0,0,0,0,0,0,0,0,0,0,0,0,0,0,0,0,0,0,0,0,0,0,0,0,0,0,0,0,0,0,0,0,0,0,0,0,0,0,0,0,0,0,0,0,0,0,0,0,0,0,0,0,0,0,0,0,0,0,0,0,0,0,0,0,0,0,0,0,0,0,0,0,0,0,0,0,0,0,0,0,0,0,0,0,0,0,0,0,0,0,0,0,0,0,0,0,0,0,0,0,0,0,0,0,0,0,0,0,0,0,0,0,0,0,0,0,0,0,0,0,0,0,0,0,0,0,0,0,0,0,0,0,0,0,0,0,0,0,0,0,0,0,0,0,0,0,0,0,0,0,0,0,0,0,0,0,0,0,0,0,0,0,0,0,0,0,0,0,0,0],"sum_hessian":[4.6968E4,2.8677E4,1.8291E4,2.4839E4,3.838E3,7.202E3,1.1089E4,2.3759E4,1.08E3,1.249E3,2.589E3,4.09E3,3.112E3,8.117E3,2.972E3,2.2669E4,1.09E3,6.71E2,4.09E2,4.75E2,7.74E2,1.635E3,9.54E2,1.914E3,2.176E3,1.645E3,1.467E3,2.82E3,5.297E3,1.414E3,1.558E3,2.2665E4,4E0,2.9E1,1.061E3,1.79E2,4.92E2,2.43E2,1.66E2,1.74E2,3.01E2,6.01E2,1.73E2,1.128E3,5.07E2,3.75E2,5.79E2,1.428E3,4.86E2,1.352E3,8.24E2,8.62E2,7.83E2,5.61E2,9.06E2,1.285E3,1.535E3,3.024E3,2.273E3,6.76E2,7.38E2,7.61E2,7.97E2,1E1,1.9E1,3.5E1,1.026E3,7.1E1,1.08E2,1.78E2,3.14E2,7.4E1,1.69E2,9.5E1,7.1E1,4E1,1.34E2,1.42E2,1.59E2,4.82E2,1.19E2,1.28E2,4.5E1,4.14E2,7.14E2,4.66E2,4.1E1,3.58E2,1.7E1,4.63E2,1.16E2,1.334E3,9.4E1,3.96E2,9E1,3.13E2,1.039E3,1.35E2,6.89E2,8.02E2,6E1,1.47E2,6.36E2,4.42E2,1.19E2,7.93E2,1.13E2,6E1,1.225E3,2.66E2,1.269E3,8E2,2.224E3,1.822E3,4.51E2,1.72E2,5.04E2,5.64E2,1.74E2,6.56E2,1.05E2,4.91E2,3.06E2,1.9E1,1.6E1,4.21E2,6.05E2,3E0,6.8E1,3.9E1,1.2E2,3.38E2,1.44E2,8.3E1,4.5E1,1.03E2,3.11E2,5.85E2,1.29E2,3.58E2,1.08E2,2E0,3.9E1,3.1E2,4.8E1,4.08E2,5.5E1,2.61E2,1.073E3,1.38E2,2.58E2,1.6E1,7.4E1,9.6E1,2.17E2,8.85E2,1.54E2,3.4E1,6.55E2,6.88E2,1.14E2,7.4E1,7.3E1,2.63E2,3.73E2,1.31E2,3.11E2,9.1E1,2.8E1,7.08E2,8.5E1,3.3E1,2.7E1,5.3E2,6.95E2,1.95E2,7.1E1,5.35E2,7.34E2,3.2E2,4.8E2,1.498E3,7.26E2,1.14E2,1.708E3,4.38E2,1.3E1,1.25E2,4.7E1,9.5E1,4.09E2,2.42E2,3.22E2,6.3E1,1.11E2,5.3E2,1.26E2,5E0,1E2,2.54E2,2.37E2,1.84E2,1.22E2,1.92E2,2.29E2,2.33E2,3.72E2,3.7E1,2E0,6.4E1,3.9E1,3.3E1,2.78E2,3.87E2,1.98E2,1.94E2,1.64E2,1.7E1,2.2E1,2.45E2,1.63E2,2.6E1,2.35E2,4.76E2,5.97E2,4.8E1,9E1,8.5E1,1.73E2,4.4E1,5.2E1,1.31E2,8.6E1,3.16E2,5.69E2,5.1E1,1.03E2,5.72E2,8.3E1,2.19E2,4.69E2,3E0,7.1E1,2E1,5.3E1,5.2E1,2.11E2,6.4E1,3.09E2,7.4E1,5.7E1,2.11E2,1E2,2.8E1,6.3E1,7.6E1,6.32E2,1.9E1,1.4E1,2.4E1,3E0,2.29E2,3.01E2,4.7E2,2.25E2,4.7E1,1.48E2,4.1E1,3E1,1.48E2,3.87E2,6.35E2,9.9E1,4E0,3.16E2,3.36E2,1.44E2,1.103E3,3.95E2,5.73E2,1.53E2,9.9E1,1.5E1,1.263E3,4.45E2,2.76E2,1.62E2,6.1E1,6.4E1,3.6E1,1.1E1,9E0,8.6E1,1.4E2,2.69E2,2.16E2,2.6E1,2.67E2,5.5E1,5E1,1.3E1,8.9E1,2.2E1,3E2,2.3E2,8.7E1,3.9E1,2.05E2,4.9E1,1.48E2,8.9E1,1.77E2,7E0,1.2E2,2E0],"tree_param":{"num_deleted":"0","num_feature":"30","num_nodes":"315","size_leaf_vector":"0"}},{"base_weights":[3.3521072E1,4.630748E0,7.998779E1,3.17633E-1,3.1681211E1,1.013563E2,5.9267925E1,-2.1127379E-1,1.2136043E1,2.4453245E1,3.7210464E1,9.140454E1,1.3514172E2,5.1704193E1,6.84282E1,-4.285546E-1,4.2940726E0,8.460386E0,1.7460648E1,1.4294225E1,2.7639816E1,3.3383575E1,4.2601418E1,1.0171423E2,8.139584E1,1.4459251E2,1.11153946E2,4.264054E1,5.5165054E1,7.212569E1,5.2660854E1,-4.286716E-1,5.998927E-1,5.8786654E0,3.3950598E0,1.1817266E1,6.4971533E0,2.2661602E1,1.4340887E1,1.7715427E1,1.1548738E1,3.125441E1,2.3730307E1,3.5850624E1,2.6131824E1,4.4705154E1,3.6279102E1,1.0717947E2,8.85932E1,8.909987E1,7.188067E1,1.6367334E2,1.2970952E2,1.247135E2,9.8749084E1,4.7335358E1,3.7035725E1,6.2285355E1,5.046478E1,6.845035E1,9.3433426E1,5.7996613E1,4.5651943E1,5.7254252E0,9.941152E0,2.763197E0,3.559169E0,1.1079022E1,1.5186546E1,6.9857345E0,4.2437506E0,2.158388E1,4.057506E1,9.738591E0,1.5324709E1,1.5028558E1,1.8297398E1,9.966255E0,1.3184E1,3.285677E1,2.5957664E1,2.5972013E1,2.1280544E1,3.509214E1,4.362494E1,3.037526E1,2.4062086E1,4.3315342E1,5.8882057E1,3.8310024E1,3.2267723E1,1.1387269E2,9.7830444E1,9.1000046E1,6.906565E1,8.330192E1,9.8891685E1,7.545202E1,6.141487E1,1.5866422E2,1.9535611E2,1.2233575E2,1.6572678E2,1.2103627E2,1.5878145E2,9.4842606E1,1.195885E2,4.6487946E1,6.4869896E1,3.192624E1,3.9145557E1,6.0244133E1,9.033573E1,4.8719105E1,6.5475174E1,7.577791E1,6.3067856E1,8.3040054E1,1.00632034E2,5.5937023E1,8.263709E1,4.4529E1,6.8940735E1,5.4790463E0,7.4113083E0,4.3273234E-1,2.8411107E0,3.5273182E0,8.2227125E0,9.899285E0,1.2279392E1,1.1528209E1,1.6572323E1,5.117491E0,7.287728E0,3.3629856E0,4.9083257E0,1.112893E1,7.973691E0,1.5520591E1,7.0351577E0,8.439455E0,1.0875484E1,2.946985E1,3.4822437E1,2.3748371E1,2.7848717E1,1.0637036E1,2.1827322E1,3.226816E1,3.6676025E1,3.9919044E1,5.330255E1,2.0020576E1,2.4875654E1,4.6805267E1,4.0275158E1,1.5482082E2,1.12140976E2,9.981101E1,7.684971E1,9.62785E1,8.3144646E1,6.474256E1,8.966998E1,8.8768005E1,7.698517E1,1.0199721E2,9.0062874E1,8.6048256E1,7.223132E1,6.639901E1,5.7830387E1,2.1205756E2,1.5622626E2,1.9892206E2,1.0136946E2,1.1810025E2,1.4559354E2,1.4306824E2,1.7997754E2,1.21505646E2,4.2359005E1,9.743224E1,8.137519E1,4.883012E1,4.343912E1,2.4445877E1,3.3333874E1,4.2617638E1,3.5861492E1,6.3769634E1,5.2895287E1,9.279649E1,6.0139614E1,5.0939175E1,4.3509094E1,5.458965E1,6.886371E1,6.818341E1,8.051304E1,5.356263E1,6.7089134E1,7.214261E1,8.986256E1,9.707872E1,1.23036156E2,6.1839394E1,5.168546E1,8.4736824E1,3.4094063E1,2.3214985E1,4.485106E1,5.3567567E0,6.7404957E0,5.7313147E0,8.381255E0,2.4469562E0,3.2575724E0,2.979074E0,3.73822E0,6.8319116E0,8.2046E0,1.1691248E1,1.6092882E1,3.486169E0,8.573214E0,3.2086594E1,3.6234238E1,9.609234E0,2.2006699E1,3.4845764E1,3.8526134E1,4.4247963E1,5.1059853E1,3.9159336E1,4.686856E1,1.7524445E2,1.09049866E2,1.3762611E2,1.1020733E2,9.737537E1,1.1780693E2,6.81428E1,9.925059E1,1.01085526E2,8.587655E1,7.927517E1,9.638692E1,6.031318E1,8.339675E1,6.2347256E1,1.1261465E2,9.364326E1,7.929591E1,8.6773476E1,7.449299E1,9.92052E1,1.12836685E2,9.070543E1,7.157212E1,7.5424385E1,6.7257805E1,7.024365E1,5.8360355E1,8.428433E1,5.6912785E1,1.0172723E2,2.3203368E2,1.5978854E2,1.3272208E2,1.7350684E2,2.2170859E2,1.0808672E2,1.24990685E2,1.0798114E2,1.548178E2,9.016699E1,1.4752393E2,4.41795E1,5.1209724E1,1.7550016E1,4.277355E1,4.066454E1,3.3982365E1,7.046246E1,6.0795334E1,5.170613E1,7.410297E1,4.138331E1,5.1860645E1,3.7537773E1,4.4605614E1,4.4841206E1,6.0616013E1,5.93423E1,7.242548E1,8.596817E1,6.608321E1,5.6392548E1,8.142654E1,6.5665306E1,5.0592022E1,9.538835E1,6.585259E1,2.7320786E1,7.290265E1,6.432117E1,9.257791E1,4.4398113E1,9.797628E1,6.917659E1,5.7190586E1,5.3211727E1,4.3719574E1,3.276705E1,4.5249535E1],"categories":[],"categories_nodes":[],"categories_segments":[],"categories_sizes":[],"default_left":[1,1,1,1,0,0,1,1,1,0,1,1,1,0,1,1,1,1,1,1,1,1,1,1,1,1,1,1,1,0,1,0,0,1,0,1,1,1,0,0,1,1,1,0,1,0,1,1,1,0,1,0,0,0,0,0,0,0,0,1,0,0,0,1,0,0,1,0,0,1,1,0,0,1,0,0,0,0,0,1,0,0,0,0,1,0,0,1,0,0,0,1,1,1,1,1,1,1,1,1,0,1,1,1,0,1,0,1,0,0,1,1,1,1,0,0,1,1,0,1,1,0,0,1,0,0,0,1,0,0,0,0,0,0,1,0,0,0,0,0,0,0,0,0,0,0,0,0,0,0,1,0,0,0,0,0,0,0,1,0,0,0,1,0,0,1,1,0,0,1,1,1,1,1,1,1,0,0,0,1,0,0,0,0,0,0,0,0,0,0,1,1,0,0,0,0,0,1,0,1,0,1,1,0,0,0,0,1,1,0,0,0,0,0,0,0,0,0,0,0,0,0,0,0,0,0,0,0,0,0,0,0,0,0,0,0,0,0,0,0,0,0,0,0,0,0,0,0,0,0,0,0,0,0,0,0,0,0,0,0,0,0,0,0,0,0,0,0,0,0,0,0,0,0,0,0,0,0,0,0,0,0,0,0,0,0,0,0,0,0,0,0,0,0,0,0,0,0,0,0,0,0,0,0,0,0,0,0,0,0,0,0,0,0,0,0,0],"id":3,"left_children":[1,3,5,7,9,11,13,15,17,19,21,23,25,27,29,31,33,35,37,39,41,43,45,47,49,51,53,55,57,59,61,-1,-1,63,65,67,69,71,73,75,77,79,81,83,85,87,89,91,93,95,97,99,101,103,105,107,109,111,113,115,117,119,121,123,-1,125,127,129,131,133,135,-1,-1,137,139,-1,-1,141,-1,143,-1,145,147,149,151,-1,153,155,-1,-1,-1,157,159,161,163,165,167,169,171,173,175,177,179,181,-1,183,-1,185,-1,187,189,191,193,195,197,199,201,203,205,207,209,211,-1,213,215,-1,217,219,-1,-1,-1,-1,-1,-1,221,-1,-1,-1,-1,223,-1,225,-1,-1,227,-1,-1,-1,229,-1,231,-1,-1,-1,-1,233,235,237,239,241,243,245,247,249,251,253,255,257,-1,259,261,263,265,267,269,271,-1,273,275,277,-1,-1,-1,-1,-1,279,-1,-1,-1,281,283,285,287,-1,-1,289,291,293,295,297,299,301,303,305,307,309,-1,311,313,-1,-1,-1,315,-1,-1,-1,-1,-1,-1,-1,-1,-1,-1,-1,-1,-1,-1,-1,-1,-1,-1,-1,-1,-1,-1,-1,-1,-1,-1,-1,-1,-1,-1,-1,-1,-1,-1,-1,-1,-1,-1,-1,-1,-1,-1,-1,-1,-1,-1,-1,-1,-1,-1,-1,-1,-1,-1,-1,-1,-1,-1,-1,-1,-1,-1,-1,-1,-1,-1,-1,-1,-1,-1,-1,-1,-1,-1,-1,-1,-1,-1,-1,-1,-1,-1,-1,-1,-1,-1,-1,-1,-1,-1,-1,-1,-1,-1,-1,-1,-1,-1,-1,-1,-1,-1,-1,-1],"loss_changes":[6.275193E7,3.3630535E6,7.928568E6,1.5541088E5,1.5751225E5,2.95348E6,6.2703E5,2.3298307E4,2.0695828E4,5.5317938E4,4.4873E4,6.95144E5,4.38468E5,1.54142E5,2.3599E5,2.989746E0,1.5399434E3,4.0883125E3,6.7169688E3,3.674664E3,1.7756188E4,2.2624875E4,1.0721E4,2.31016E5,2.47524E5,3.86282E5,8.3729E4,3.46385E4,1.17573E5,2.54308E5,2.67095E4,0E0,0E0,1.8898438E2,6.285498E1,4.088125E2,4.118418E2,2.232461E3,1.0913867E3,9.605469E0,4.6896875E2,4.8929375E3,2.9235E3,4.247875E3,2.2376875E3,1.108425E4,6.9459375E2,1.36724E5,4.03395E4,1.00197E5,5.34875E4,6.8193E4,1.95114E5,1.448075E4,1.332475E4,8.113625E3,5.595625E3,7.6435E4,5.3881E4,1.0735E5,2.80795E4,1.7808625E4,5.9264375E3,1.18478516E2,0E0,2.5825195E1,5.3137695E1,1.5316992E2,6.6660156E0,1.477627E2,2.6808105E1,0E0,0E0,3.640576E1,2.5453125E2,0E0,0E0,7.7578125E1,0E0,2.409125E3,0E0,6.990625E2,1.5602812E3,2.833125E3,8.489375E2,0E0,2.6479688E2,4.841625E3,0E0,0E0,0E0,7.9858E4,3.3593E4,2.84835E4,4.2599375E3,3.48075E4,1.01435E4,3.3202E4,3.324125E3,3.7815E4,6.9825E3,4.9495E4,1.7843E4,3.9745E3,0E0,1.13925E3,0E0,3.006E3,0E0,1.1962656E3,3.5458125E3,3.1241E4,1.4783125E3,2.03965E4,4.50325E3,3.76275E4,5.92835E4,8.7585E3,1.0585E4,7.117625E3,3.7267188E2,1.230875E3,0E0,1.6033203E1,2.692163E1,0E0,1.5666504E1,5.2573242E1,0E0,0E0,0E0,0E0,0E0,0E0,6.096582E1,0E0,0E0,0E0,0E0,2.8960547E2,0E0,3.239746E0,0E0,0E0,7.721875E1,0E0,0E0,0E0,4.2848438E2,0E0,5.80875E2,0E0,0E0,0E0,0E0,8.851875E2,7.101875E2,3.04345E4,4.9831E4,2.8152E4,1.0790625E4,1.732E4,1.085675E4,2.9848438E3,3.6362656E3,2.2129E4,7.368E3,4.3615E3,0E0,1.1306375E4,9.0925E3,8.76375E2,1.0531875E3,2.267925E4,2.275E4,6.12475E3,0E0,2.63715E4,1.797725E4,1.3375E2,0E0,0E0,0E0,0E0,0E0,2.1420625E3,0E0,0E0,0E0,7.39375E1,7.39125E2,1.3592E4,7.239625E3,0E0,0E0,9.87325E3,2.19525E3,6.892656E2,1.365625E3,1.176225E4,1.15595E4,1.4438375E4,3.40305E4,8.698125E2,2.5064375E3,7.42375E3,0E0,1.74E3,6.52375E2,0E0,0E0,0E0,8.23125E1,0E0,0E0,0E0,0E0,0E0,0E0,0E0,0E0,0E0,0E0,0E0,0E0,0E0,0E0,0E0,0E0,0E0,0E0,0E0,0E0,0E0,0E0,0E0,0E0,0E0,0E0,0E0,0E0,0E0,0E0,0E0,0E0,0E0,0E0,0E0,0E0,0E0,0E0,0E0,0E0,0E0,0E0,0E0,0E0,0E0,0E0,0E0,0E0,0E0,0E0,0E0,0E0,0E0,0E0,0E0,0E0,0E0,0E0,0E0,0E0,0E0,0E0,0E0,0E0,0E0,0E0,0E0,0E0,0E0,0E0,0E0,0E0,0E0,0E0,0E0,0E0,0E0,0E0,0E0,0E0,0E0,0E0,0E0,0E0,0E0,0E0,0E0,0E0,0E0,0E0,0E0,0E0,0E0,0E0,0E0,0E0,0E0,0E0,0E0,0E0,0E0,0E0,0E0,0E0],"parents":[2147483647,0,0,1,1,2,2,3,3,4,4,5,5,6,6,7,7,8,8,9,9,10,10,11,11,12,12,13,13,14,14,15,15,16,16,17,17,18,18,19,19,20,20,21,21,22,22,23,23,24,24,25,25,26,26,27,27,28,28,29,29,30,30,33,33,34,34,35,35,36,36,37,37,38,38,39,39,40,40,41,41,42,42,43,43,44,44,45,45,46,46,47,47,48,48,49,49,50,50,51,51,52,52,53,53,54,54,55,55,56,56,57,57,58,58,59,59,60,60,61,61,62,62,63,63,65,65,66,66,67,67,68,68,69,69,70,70,73,73,74,74,77,77,79,79,81,81,82,82,83,83,84,84,86,86,87,87,91,91,92,92,93,93,94,94,95,95,96,96,97,97,98,98,99,99,100,100,101,101,102,102,103,103,105,105,107,107,109,109,110,110,111,111,112,112,113,113,114,114,115,115,116,116,117,117,118,118,119,119,120,120,121,121,123,123,124,124,126,126,127,127,134,134,139,139,141,141,144,144,148,148,150,150,155,155,156,156,157,157,158,158,159,159,160,160,161,161,162,162,163,163,164,164,165,165,166,166,167,167,169,169,170,170,171,171,172,172,173,173,174,174,175,175,177,177,178,178,179,179,185,185,189,189,190,190,191,191,192,192,195,195,196,196,197,197,198,198,199,199,200,200,201,201,202,202,203,203,204,204,205,205,207,207,208,208,212,212],"right_children":[2,4,6,8,10,12,14,16,18,20,22,24,26,28,30,32,34,36,38,40,42,44,46,48,50,52,54,56,58,60,62,-1,-1,64,66,68,70,72,74,76,78,80,82,84,86,88,90,92,94,96,98,100,102,104,106,108,110,112,114,116,118,120,122,124,-1,126,128,130,132,134,136,-1,-1,138,140,-1,-1,142,-1,144,-1,146,148,150,152,-1,154,156,-1,-1,-1,158,160,162,164,166,168,170,172,174,176,178,180,182,-1,184,-1,186,-1,188,190,192,194,196,198,200,202,204,206,208,210,212,-1,214,216,-1,218,220,-1,-1,-1,-1,-1,-1,222,-1,-1,-1,-1,224,-1,226,-1,-1,228,-1,-1,-1,230,-1,232,-1,-1,-1,-1,234,236,238,240,242,244,246,248,250,252,254,256,258,-1,260,262,264,266,268,270,272,-1,274,276,278,-1,-1,-1,-1,-1,280,-1,-1,-1,282,284,286,288,-1,-1,290,292,294,296,298,300,302,304,306,308,310,-1,312,314,-1,-1,-1,316,-1,-1,-1,-1,-1,-1,-1,-1,-1,-1,-1,-1,-1,-1,-1,-1,-1,-1,-1,-1,-1,-1,-1,-1,-1,-1,-1,-1,-1,-1,-1,-1,-1,-1,-1,-1,-1,-1,-1,-1,-1,-1,-1,-1,-1,-1,-1,-1,-1,-1,-1,-1,-1,-1,-1,-1,-1,-1,-1,-1,-1,-1,-1,-1,-1,-1,-1,-1,-1,-1,-1,-1,-1,-1,-1,-1,-1,-1,-1,-1,-1,-1,-1,-1,-1,-1,-1,-1,-1,-1,-1,-1,-1,-1,-1,-1,-1,-1,-1,-1,-1,-1,-1,-1],"split_conditions":[4.5184998E1,1.8625E1,7.638564E-1,-6.379833E-1,3.3815002E1,9.7125E1,6.6365E1,-6.23323E-1,-6.0065305E-1,2.126E1,4.261E1,9.890759E-1,9.940379E-1,5.0010002E1,2.635E2,1E-1,1.6143739E0,1.5862073E0,1.5256635E0,1.5481677E0,1.4436316E0,1.4264994E0,1.3494039E0,5.8106333E-1,3.645864E-1,3.0941457E-1,3.0476853E-1,1.2595319E0,1.0635266E0,1.41075E2,1.0009501E0,-2.143358E-2,2.9994635E-2,1.404E1,2.8249998E0,2.1425E1,-1.9474718E-1,-1.3594227E-1,1.739E1,2.424E1,1.084E1,4.05E1,2.085E2,1.21149994E2,2.035E2,1.03615E2,-4.603593E-2,6.314642E-1,2.785E2,6.8365005E1,2.495E2,1.7548999E2,1.89875E2,1.51E2,1.46375E2,9.9035E1,3.575E1,1.1357E2,1.18675E2,1.15544334E-1,7.7275E1,8.069E1,9.7185E1,1.5065001E1,4.970576E-1,2.29E0,7.35E-1,1.5514999E1,5.425E0,-5.8132434E-1,-6.240027E-1,1.079194E0,2.028753E0,-5.893213E-2,1.524E1,7.514279E-1,9.148699E-1,9.215E0,6.592E-1,4.35E1,1.2978833E0,2.2064999E1,2.2865E1,4.0675003E1,-3.645743E-1,1.518763E0,2.1075E1,-4.3636262E-2,2.944103E0,1.9155012E0,1.6133862E0,1.4500001E-1,2.455E2,6.528374E-1,2.65E-1,2.4303188E0,5.9940434E-1,1.9635952E0,2.625E2,1.3499999E-1,2.4417499E2,2.295E2,2.0105E3,2.349339E0,7.9390726E0,7.6237535E-1,5.979425E0,3.145E2,3.2434947E0,2.7215E1,-1.7756775E-1,2.825E2,1.6460898E0,2.625E2,4.9315002E1,6.7275E1,4.9960095E-1,6.471E1,1.45375E2,3.405553E-3,2.0855198E0,4.085E1,3.4470367E0,9.889999E0,6.3050003E0,2.1636618E-2,8.95E0,-6.5396583E-1,4.1113564E-1,4.9496427E-1,6.139696E-1,5.764105E-1,8.2861614E-1,2.5587454E-1,1.0785E1,1.6814928E-1,2.4541628E-1,5.564465E-1,3.9868456E-1,7.9700003E0,3.5175788E-1,1.558E1,5.4377425E-1,1.4734925E0,2.9015E1,1.1874186E0,1.3924359E0,5.318518E-1,2.3060001E1,1.6134081E0,4.1675003E1,1.9959522E0,2.6651275E0,1.0010289E0,1.2437828E0,4.821E1,5.7199997E1,6.5065E1,3.1928372E-1,8.425E1,6.459E1,2.8585E1,3.5500002E-1,4.6035E1,8.181E1,5.219263E-1,2.4630785E0,9.0315E1,4.503144E0,1.1337354E0,3.8032854E-1,2.0115E3,1.55E-1,6E0,1.3314381E0,2.0105E3,5.0684733E0,1.1991499E2,1.13134995E2,4.5E0,8.998878E0,6.0752826E0,2.1179502E0,4.871612E0,4.0687594E0,4.5184998E1,2.171956E0,1.2222939E0,1.6666937E0,2.566E1,1.44E2,3.8379544E-1,5.7825E1,4.639825E0,3.0069807E0,4.1635E1,4.4760002E1,-2.68489E-1,1.34265E2,1.95E-1,4.7885E1,1.95E-1,1.55E-1,4.839E1,5.8415E1,4.4559998E1,6.151808E0,1.3720784E-1,3.015E2,4.236841E0,1.7047032E0,1.1607493E0,3.7010002E1,2.6783785E-1,3.3702478E-1,2.8656575E-1,4.1906276E-1,1.2234781E-1,1.6287862E-1,1.489537E-1,1.86911E-1,3.415956E-1,4.1023E-1,5.845624E-1,8.046441E-1,1.7430846E-1,4.286607E-1,1.6043297E0,1.8117119E0,4.804617E-1,1.100335E0,1.7422882E0,1.9263067E0,2.2123983E0,2.5529926E0,1.9579668E0,2.3434281E0,8.762222E0,5.452493E0,6.8813057E0,5.5103664E0,4.868768E0,5.8903465E0,3.40714E0,4.9625297E0,5.0542765E0,4.2938275E0,3.9637585E0,4.819346E0,3.015659E0,4.1698375E0,3.1173627E0,5.6307325E0,4.682163E0,3.9647958E0,4.338674E0,3.7246494E0,4.96026E0,5.6418343E0,4.5352716E0,3.5786061E0,3.7712193E0,3.3628902E0,3.5121827E0,2.9180179E0,4.2142167E0,2.8456392E0,5.0863614E0,1.1601684E1,7.989427E0,6.636104E0,8.675342E0,1.1085429E1,5.4043365E0,6.249534E0,5.399057E0,7.74089E0,4.50835E0,7.3761964E0,2.208975E0,2.5604863E0,8.7750083E-1,2.1386774E0,2.033227E0,1.6991183E0,3.5231233E0,3.0397668E0,2.5853066E0,3.7051485E0,2.0691655E0,2.5930324E0,1.8768886E0,2.2302806E0,2.2420604E0,3.0308006E0,2.9671152E0,3.6212742E0,4.2984085E0,3.3041608E0,2.8196275E0,4.0713267E0,3.2832654E0,2.529601E0,4.769418E0,3.2926297E0,1.3660393E0,3.6451325E0,3.2160585E0,4.6288958E0,2.2199056E0,4.898814E0,3.4588296E0,2.8595293E0,2.6605864E0,2.1859787E0,1.6383526E0,2.2624767E0],"split_indices":[12,12,9,4,12,11,14,3,4,20,20,3,3,20,27,0,9,9,9,9,9,9,9,9,9,9,9,9,9,11,9,0,0,21,21,21,3,4,21,12,21,29,27,11,27,11,3,10,27,11,27,11,11,11,11,11,21,11,11,3,17,11,11,13,0,13,0,20,17,3,4,0,0,3,17,0,0,20,0,27,0,13,13,21,4,0,21,3,0,0,0,0,27,10,0,3,10,3,27,0,14,27,26,10,0,10,0,27,0,21,3,27,3,27,17,18,4,20,18,3,3,17,0,20,20,0,13,4,0,0,0,0,0,0,20,0,0,0,0,13,0,13,0,0,13,0,0,0,12,0,13,0,0,0,0,14,14,11,4,11,11,11,0,11,18,10,4,11,0,10,10,26,0,28,10,26,0,11,11,25,0,0,0,0,0,20,0,0,0,18,27,4,11,0,0,14,14,4,11,0,20,0,0,13,13,20,0,10,27,0,0,0,20,0,0,0,0,0,0,0,0,0,0,0,0,0,0,0,0,0,0,0,0,0,0,0,0,0,0,0,0,0,0,0,0,0,0,0,0,0,0,0,0,0,0,0,0,0,0,0,0,0,0,0,0,0,0,0,0,0,0,0,0,0,0,0,0,0,0,0,0,0,0,0,0,0,0,0,0,0,0,0,0,0,0,0,0,0,0,0,0,0,0,0,0,0,0,0,0,0,0,0,0,0,0,0,0],"split_type":[0,0,0,0,0,0,0,0,0,0,0,0,0,0,0,0,0,0,0,0,0,0,0,0,0,0,0,0,0,0,0,0,0,0,0,0,0,0,0,0,0,0,0,0,0,0,0,0,0,0,0,0,0,0,0,0,0,0,0,0,0,0,0,0,0,0,0,0,0,0,0,0,0,0,0,0,0,0,0,0,0,0,0,0,0,0,0,0,0,0,0,0,0,0,0,0,0,0,0,0,0,0,0,0,0,0,0,0,0,0,0,0,0,0,0,0,0,0,0,0,0,0,0,0,0,0,0,0,0,0,0,0,0,0,0,0,0,0,0,0,0,0,0,0,0,0,0,0,0,0,0,0,0,0,0,0,0,0,0,0,0,0,0,0,0,0,0,0,0,0,0,0,0,0,0,0,0,0,0,0,0,0,0,0,0,0,0,0,0,0,0,0,0,0,0,0,0,0,0,0,0,0,0,0,0,0,0,0,0,0,0,0,0,0,0,0,0,0,0,0,0,0,0,0,0,0,0,0,0,0,0,0,0,0,0,0,0,0,0,0,0,0,0,0,0,0,0,0,0,0,0,0,0,0,0,0,0,0,0,0,0,0,0,0,0,0,0,0,0,0,0,0,0,0,0,0,0,0,0,0,0,0,0,0,0,0,0,0,0,0,0,0,0,0,0,0,0,0,0,0,0,0,0,0,0,0,0,0,0,0,0,0,0,0,0,0,0],"sum_hessian":[4.6744E4,2.8824E4,1.792E4,2.4861E4,3.963E3,8.82E3,9.1E3,2.3797E4,1.064E3,1.72E3,2.243E3,6.816E3,2.004E3,4.988E3,4.112E3,2.2703E4,1.094E3,6.31E2,4.33E2,4.12E2,1.308E3,1.316E3,9.27E2,3.353E3,3.463E3,1.434E3,5.7E2,1.382E3,3.606E3,3.328E3,7.84E2,2.2701E4,2E0,3.94E2,7E2,2.31E2,4E2,1.6E2,2.73E2,1.81E2,2.31E2,6.76E2,6.32E2,9.79E2,3.37E2,6.91E2,2.36E2,2.362E3,9.91E2,1.909E3,1.554E3,6.24E2,8.1E2,2.68E2,3.02E2,7.48E2,6.34E2,1.429E3,2.177E3,2.842E3,4.86E2,4.41E2,3.43E2,3.82E2,1.2E1,1.48E2,5.52E2,1.93E2,3.8E1,3.27E2,7.3E1,1.53E2,7E0,5E1,2.23E2,3.7E1,1.44E2,1.21E2,1.1E2,5.15E2,1.61E2,3.25E2,3.07E2,8.97E2,8.2E1,1.06E2,2.31E2,6.33E2,5.8E1,1.51E2,8.5E1,1.37E3,9.92E2,8.79E2,1.12E2,1.205E3,7.04E2,1.154E3,4E2,5.44E2,8E1,6.76E2,1.34E2,2.46E2,2.2E1,2.59E2,4.3E1,7.17E2,3.1E1,1.9E2,4.44E2,1.335E3,9.4E1,1.954E3,2.23E2,1.198E3,1.644E3,2.04E2,2.82E2,4.1E2,3.1E1,3.3E2,1.3E1,3.37E2,4.5E1,5E0,1.43E2,5.5E2,2E0,1.02E2,9.1E1,1.3E1,2.5E1,4.8E1,2.79E2,3.4E1,3.9E1,2.5E1,2.5E1,2.17E2,6E0,4.9E1,7.2E1,1.95E2,3.2E2,1.55E2,1.7E2,1.6E1,2.91E2,3.3E2,5.67E2,6.3E1,1.9E1,4.3E1,1.88E2,2.88E2,3.45E2,5.2E1,1.318E3,9.03E2,8.9E1,5.19E2,3.6E2,9.6E1,1.6E1,6.39E2,5.66E2,5.13E2,1.91E2,2.63E2,8.91E2,1.6E2,2.4E2,2E1,5.24E2,7.6E1,4E0,5.77E2,9.9E1,5.6E1,7.8E1,2.44E2,2E0,2.12E2,4.7E1,3.97E2,3.2E2,3.3E1,1.57E2,2.1E2,2.34E2,8.97E2,4.38E2,8.5E1,9E0,1.364E3,5.9E2,5.7E1,1.66E2,4.66E2,7.32E2,4.93E2,1.151E3,8.3E1,1.21E2,2.48E2,3.4E1,1.66E2,2.44E2,2.9E1,2E0,6E0,3.24E2,3.12E2,2.5E1,1.9E1,2.6E1,7.7E1,6.6E1,1.57E2,3.93E2,1.92E2,8.7E1,3.1E1,1.86E2,2E0,4.7E1,1.17E2,2.03E2,5E0,2.86E2,2.95E2,2.72E2,1.87E2,1.01E2,3.01E2,4.4E1,3.4E1,1.8E1,8.8E1,1.23E3,8.01E2,1.02E2,6.7E1,2.2E1,3.49E2,1.7E2,2.84E2,7.6E1,8.1E1,1.5E1,9E0,7E0,4.16E2,2.23E2,1.08E2,4.58E2,4.16E2,9.7E1,1.95E2,6.8E1,5.34E2,3.57E2,1.03E2,5.7E1,5E0,2.35E2,4E0,1.6E1,4.5E2,7.4E1,4E1,3.6E1,2.42E2,3.35E2,2.2E1,7.7E1,6E0,5E1,1.41E2,2.56E2,2E0,2.08E2,6E1,1.74E2,2.69E2,6.28E2,4.18E2,2E1,1.24E2,1.24E3,9.7E1,4.93E2,2.5E1,3.2E1,5E1,1.16E2,4.5E1,4.21E2,2.9E1,7.03E2,9.3E1,4E2,4.5E1,1.106E3,2E0,8.1E1,1.4E1,1.07E2,5E0,2.43E2,5.9E1,1.07E2,2E2,4.4E1,1.3E1,3.11E2],"tree_param":{"num_deleted":"0","num_feature":"30","num_nodes":"317","size_leaf_vector":"0"}},{"base_weights":[3.209872E1,5.3892903E0,7.805493E1,3.7828666E-1,3.2001167E1,9.704831E1,5.8527256E1,-4.0723893E-1,8.175941E0,3.9003273E1,2.4394896E1,8.8106094E1,1.3333633E2,6.799811E1,4.891468E1,5.686506E0,1.6737448E1,3.5009026E1,4.2122272E1,1.615919E1,2.7256891E1,7.3310905E1,9.505534E1,1.581528E2,1.2276025E2,6.3558765E1,9.3996666E1,4.676641E1,6.60881E1,9.9865885E0,4.205365E0,2.0860065E1,1.2334626E1,3.874613E1,3.3591064E1,4.0836483E1,5.356334E1,1.8615715E1,1.1695591E1,3.042891E1,2.4941212E1,7.075992E1,1.0326683E2,9.017935E1,1.1198131E2,1.4497464E2,1.8404115E2,1.12325874E2,1.5417587E2,5.9994556E1,7.297243E1,8.752492E1,1.16480095E2,4.8904324E1,3.6475243E1,7.48415E1,5.5206223E1,8.744327E0,1.2909745E1,3.6761994E0,5.32928E0,1.9743832E1,3.2836296E1,8.512347E0,1.3708411E1,3.678474E1,4.1621277E1,3.293925E1,4.2762573E1,3.7497326E1,4.359139E1,4.91762E1,6.275339E1,1.711109E1,2.0618288E1,9.8044615E0,1.3059359E1,2.9009308E1,3.6864033E1,2.4200071E1,3.0894192E1,5.959037E1,7.703838E1,6.889287E1,1.2313301E2,8.54889E1,1.0292571E2,1.1720122E2,9.037304E1,1.24733635E2,1.5310779E2,1.7460303E2,2.163807E2,8.961415E1,1.1738812E2,1.6169185E2,1.3292416E2,4.910939E1,6.3520638E1,6.991241E1,9.20614E1,9.699726E1,8.005471E1,5.5937836E1,4.681666E1,3.2569954E1,3.9791477E1,6.748488E1,8.722194E1,4.2657314E1,5.7965565E1,1.0536643E1,7.861436E0,1.6436636E1,1.1856323E1,4.5368786E0,2.8540533E0,5.9363976E0,4.31574E0,2.1986483E1,1.8657867E1,9.265553E0,6.910291E0,1.4930943E1,1.1081679E1,2.8788088E1,3.3997017E1,4.1146553E1,3.5015472E1,4.5476574E1,3.941847E1,5.367468E1,4.055228E1,2.6006376E1,6.400307E1,1.5524388E1,1.7924028E1,2.2001669E1,1.7829584E1,2.834997E0,9.927838E0,2.5311407E1,2.9861458E1,2.4915798E1,1.8926142E1,3.364931E1,2.5839998E1,5.4357655E1,6.43067E1,6.850523E1,8.2444176E1,1.1641608E2,6.220028E1,1.2916216E2,7.673956E1,1.7901082E2,8.507699E1,1.13072174E2,9.030179E1,1.1170846E2,1.436534E2,6.339538E1,9.365824E1,1.1293563E2,1.5419698E2,1.953898E2,1.4902661E2,1.7611195E2,8.078055E1,9.2067856E1,2.2127313E2,8.6375595E1,1.1753677E2,1.2430567E2,1.03608116E2,1.3464043E2,1.6798647E2,4.336427E1,5.170438E1,6.9259735E1,5.744734E1,7.691206E1,6.456072E1,7.841263E1,9.9414665E1,9.977782E1,7.698802E1,7.2104485E1,8.645387E1,5.3797962E1,6.614501E1,4.5527798E1,5.449933E1,3.409755E1,2.3020075E1,3.7741974E1,4.7645428E1,7.6810646E1,6.3234497E1,4.3621914E1,1.5576892E1,6.01766E1,4.5064056E1,4.2928543E0,5.472046E0,2.5183537E0,3.0164337E0,2.853265E0,4.3735604E0,3.0689125E1,3.480236E1,3.9714733E1,5.8353477E1,3.7868538E1,3.316266E1,4.953745E1,4.3645412E1,3.269728E1,2.8222595E1,2.7541273E1,2.3860415E1,1.21902275E1,1.979968E1,4.835591E1,5.6341908E1,6.585419E1,8.332138E1,1.1973432E2,8.168091E1,5.3719612E1,7.647564E1,1.3529042E2,7.550083E1,5.6060707E1,1.0688515E2,8.793343E1,7.217815E1,1.2640413E2,1.0212331E2,1.1588264E2,8.361861E1,1.7613362E2,1.0948921E2,1.4477995E2,6.8310814E1,1.04214676E2,8.740401E1,8.7987625E1,1.1844594E2,2.070138E2,6.8265274E1,9.2094765E1,1.7800322E2,6.941365E1,8.936451E1,8.393147E1,1.4395262E2,1.1724227E2,1.381853E2,9.492413E1,1.1244059E2,5.632544E1,1.689688E2,7.7649895E1,6.4449356E1,5.5166702E1,6.769461E1,7.7307365E1,3.259395E1,5.9792698E1,6.987966E1,5.9023266E1,8.6941605E1,6.075307E1,1.0268493E2,9.1289116E1,1.0771145E2,7.26747E1,3.5974197E1,8.8010956E1,5.245352E1,4.635417E1,5.8437843E1,3.4977306E1,6.69318E1,4.1467655E1,4.8119377E1,6.3414413E1,5.1824364E1,4.2525906E1,3.3217995E1,3.5134785E1,4.181631E1,5.0771694E1,3.5280067E1,3.1948675E1,7.809454E1,4.975873E1,6.296971E1],"categories":[],"categories_nodes":[],"categories_segments":[],"categories_sizes":[],"default_left":[1,1,1,1,1,0,1,0,1,0,0,1,1,0,0,1,1,1,0,1,1,1,1,0,0,1,0,1,1,1,1,0,0,1,0,1,1,1,1,0,0,1,1,0,1,1,0,1,1,1,1,1,0,1,1,0,0,1,1,1,1,1,0,1,1,0,0,0,0,1,1,1,0,0,1,0,0,1,0,1,1,1,1,0,1,1,1,0,0,1,1,0,1,1,1,0,0,1,1,1,1,1,0,1,0,1,1,1,0,1,1,0,0,0,0,1,1,0,1,0,0,0,0,0,0,0,1,1,1,1,0,0,0,0,0,0,0,0,0,0,0,0,1,1,1,0,0,1,0,0,1,0,1,1,1,0,1,1,1,1,1,0,1,1,0,1,0,0,0,0,0,1,0,0,0,0,0,0,0,1,1,1,1,1,0,0,0,1,1,1,1,1,1,1,0,1,1,0,0,0,0,0,0,0,0,0,0,0,0,0,0,0,0,0,0,0,0,0,0,0,0,0,0,0,0,0,0,0,0,0,0,0,0,0,0,0,0,0,0,0,0,0,0,0,0,0,0,0,0,0,0,0,0,0,0,0,0,0,0,0,0,0,0,0,0,0,0,0,0,0,0,0,0,0,0,0,0,0,0,0,0,0,0,0,0,0,0,0,0,0,0,0,0,0,0,0,0,0,0],"id":4,"left_children":[1,3,5,7,9,11,13,-1,15,17,19,21,23,25,27,29,31,33,35,37,39,41,43,45,47,49,51,53,55,57,59,61,63,65,67,69,71,73,75,77,79,81,83,85,87,89,91,93,95,97,99,101,-1,103,105,107,109,111,113,115,117,119,-1,121,123,-1,-1,125,-1,127,129,131,133,135,137,139,-1,141,-1,143,145,147,149,151,153,155,157,159,161,163,165,167,169,171,173,175,-1,177,179,181,183,185,187,189,191,193,195,197,-1,199,201,-1,-1,-1,-1,203,205,-1,207,-1,-1,-1,-1,-1,-1,-1,209,211,213,215,-1,-1,-1,-1,-1,-1,-1,-1,-1,-1,-1,-1,217,219,221,-1,-1,223,-1,225,227,-1,229,231,233,-1,235,237,239,241,243,-1,245,247,-1,249,-1,251,-1,-1,-1,253,255,257,259,-1,261,-1,-1,263,265,267,269,271,273,275,-1,277,279,281,283,285,287,289,-1,291,293,295,-1,-1,-1,297,-1,-1,-1,-1,-1,-1,-1,-1,-1,-1,-1,-1,-1,-1,-1,-1,-1,-1,-1,-1,-1,-1,-1,-1,-1,-1,-1,-1,-1,-1,-1,-1,-1,-1,-1,-1,-1,-1,-1,-1,-1,-1,-1,-1,-1,-1,-1,-1,-1,-1,-1,-1,-1,-1,-1,-1,-1,-1,-1,-1,-1,-1,-1,-1,-1,-1,-1,-1,-1,-1,-1,-1,-1,-1,-1,-1,-1,-1,-1,-1,-1,-1,-1,-1,-1,-1,-1,-1,-1,-1,-1,-1,-1,-1,-1,-1,-1],"loss_changes":[5.75517E7,3.9544145E6,6.386344E6,1.5286525E5,2.49317E5,2.822728E6,7.70508E5,0E0,4.8584453E4,2.8985E4,5.271125E4,7.13868E5,4.33332E5,4.8789E5,1.52672E5,1.1237547E4,9.072391E3,4.41075E3,1.7937E4,6.1858125E3,1.1522625E4,1.6425E5,3.83328E5,1.47993E5,3.80634E5,1.18357E5,8.0311E4,8.08545E4,4.0351625E4,1.5321016E3,7.648672E2,2.8809062E3,1.2013086E3,1.043125E2,3.3081875E3,9.717125E3,2.3569688E3,7.771172E2,4.1356445E2,5.3344375E3,3.5408125E3,1.40713E5,1.10338E5,2.12766E5,1.09193E5,3.75325E4,1.38025E4,9.468E4,2.64255E4,9.8938E4,5.19765E4,2.669525E4,0E0,4.3003E4,7.1219375E3,1.742975E4,4.86825E3,4.2512305E2,2.992578E2,6.2389453E2,2.3282227E2,1.8403125E2,0E0,1.9233398E1,4.2219922E2,0E0,0E0,2.2750625E3,0E0,3.676375E3,3.478125E3,1.547625E3,1.72375E2,5.5195312E0,2.0953906E2,5.0961914E1,0E0,1.0686875E3,0E0,2.8086562E3,5.786875E2,1.501375E4,5.53795E4,1.37504375E4,2.0576875E4,8.9362E4,1.16853E5,1.07746E5,1.2762875E4,1.8736875E4,1.24685E4,5.027E3,3.06375E2,5.311E3,5.8137E4,1.43325E4,0E0,7.523125E3,6.5906E4,2.74745E4,5.753625E3,4.001875E3,7.909625E3,1.1862E4,2.1303E4,3.6499375E3,3.78725E3,1.6831875E3,0E0,4.17625E2,2.1660625E3,0E0,0E0,0E0,0E0,7.6461914E1,1.764209E1,0E0,1.135498E0,0E0,0E0,0E0,0E0,0E0,0E0,0E0,4.903125E2,3.1765938E3,5.5734375E2,1.221375E3,0E0,0E0,0E0,0E0,0E0,0E0,0E0,0E0,0E0,0E0,0E0,0E0,1.23825E3,1.45425E3,3.941172E2,0E0,0E0,1.5865E3,0E0,1.48985E4,1.31325E4,0E0,3.155625E3,2.1026125E4,3.358586E3,0E0,9.3318E4,6.6791E4,6.672975E4,8.2227E4,2.2475E3,0E0,3.171375E3,3.009375E2,0E0,1.2466625E4,0E0,4.7405E3,0E0,0E0,0E0,1.7565E3,1.2335312E3,3.19355E4,8.88525E3,0E0,9.349E3,0E0,0E0,3.64045E4,1.91685E4,3.96225E3,8.426E3,3.46775E3,4.3820625E3,2.356875E3,0E0,6.38125E1,3.27175E3,1.7634125E4,5.5253125E2,1.9712E4,4.82175E3,5.1478125E2,0E0,1.505125E3,8.3746875E2,2.1209375E2,0E0,0E0,0E0,1.02775E3,0E0,0E0,0E0,0E0,0E0,0E0,0E0,0E0,0E0,0E0,0E0,0E0,0E0,0E0,0E0,0E0,0E0,0E0,0E0,0E0,0E0,0E0,0E0,0E0,0E0,0E0,0E0,0E0,0E0,0E0,0E0,0E0,0E0,0E0,0E0,0E0,0E0,0E0,0E0,0E0,0E0,0E0,0E0,0E0,0E0,0E0,0E0,0E0,0E0,0E0,0E0,0E0,0E0,0E0,0E0,0E0,0E0,0E0,0E0,0E0,0E0,0E0,0E0,0E0,0E0,0E0,0E0,0E0,0E0,0E0,0E0,0E0,0E0,0E0,0E0,0E0,0E0,0E0,0E0,0E0,0E0,0E0,0E0,0E0,0E0,0E0,0E0,0E0,0E0,0E0,0E0,0E0,0E0,0E0,0E0,0E0,0E0],"parents":[2147483647,0,0,1,1,2,2,3,3,4,4,5,5,6,6,8,8,9,9,10,10,11,11,12,12,13,13,14,14,15,15,16,16,17,17,18,18,19,19,20,20,21,21,22,22,23,23,24,24,25,25,26,26,27,27,28,28,29,29,30,30,31,31,32,32,33,33,34,34,35,35,36,36,37,37,38,38,39,39,40,40,41,41,42,42,43,43,44,44,45,45,46,46,47,47,48,48,49,49,50,50,51,51,53,53,54,54,55,55,56,56,57,57,58,58,59,59,60,60,61,61,63,63,64,64,67,67,69,69,70,70,71,71,72,72,73,73,74,74,75,75,77,77,79,79,80,80,81,81,82,82,83,83,84,84,85,85,86,86,87,87,88,88,89,89,90,90,91,91,92,92,93,93,94,94,95,95,97,97,98,98,99,99,100,100,101,101,102,102,103,103,104,104,105,105,106,106,107,107,109,109,110,110,115,115,116,116,118,118,126,126,127,127,128,128,129,129,142,142,143,143,144,144,147,147,149,149,150,150,152,152,153,153,154,154,156,156,157,157,158,158,159,159,160,160,162,162,163,163,165,165,167,167,171,171,172,172,173,173,174,174,176,176,179,179,180,180,181,181,182,182,183,183,184,184,185,185,187,187,188,188,189,189,190,190,191,191,192,192,193,193,195,195,196,196,197,197,201,201],"right_children":[2,4,6,8,10,12,14,-1,16,18,20,22,24,26,28,30,32,34,36,38,40,42,44,46,48,50,52,54,56,58,60,62,64,66,68,70,72,74,76,78,80,82,84,86,88,90,92,94,96,98,100,102,-1,104,106,108,110,112,114,116,118,120,-1,122,124,-1,-1,126,-1,128,130,132,134,136,138,140,-1,142,-1,144,146,148,150,152,154,156,158,160,162,164,166,168,170,172,174,176,-1,178,180,182,184,186,188,190,192,194,196,198,-1,200,202,-1,-1,-1,-1,204,206,-1,208,-1,-1,-1,-1,-1,-1,-1,210,212,214,216,-1,-1,-1,-1,-1,-1,-1,-1,-1,-1,-1,-1,218,220,222,-1,-1,224,-1,226,228,-1,230,232,234,-1,236,238,240,242,244,-1,246,248,-1,250,-1,252,-1,-1,-1,254,256,258,260,-1,262,-1,-1,264,266,268,270,272,274,276,-1,278,280,282,284,286,288,290,-1,292,294,296,-1,-1,-1,298,-1,-1,-1,-1,-1,-1,-1,-1,-1,-1,-1,-1,-1,-1,-1,-1,-1,-1,-1,-1,-1,-1,-1,-1,-1,-1,-1,-1,-1,-1,-1,-1,-1,-1,-1,-1,-1,-1,-1,-1,-1,-1,-1,-1,-1,-1,-1,-1,-1,-1,-1,-1,-1,-1,-1,-1,-1,-1,-1,-1,-1,-1,-1,-1,-1,-1,-1,-1,-1,-1,-1,-1,-1,-1,-1,-1,-1,-1,-1,-1,-1,-1,-1,-1,-1,-1,-1,-1,-1,-1,-1,-1,-1,-1,-1,-1,-1],"split_conditions":[4.809E1,1.916E1,7.487567E-1,8E-2,1.4015268E0,1.038E2,1.0449424E0,-2.0361947E-2,-5.511342E-1,4.541E1,2.489E1,7.917671E-1,1.35E1,1.153E2,1.3411499E2,1.5969512E0,1.5310354E0,1.2760835E0,9.9525E1,1.543812E0,1.428532E0,9.735474E-2,1.0811626E0,1.365E2,1.64375E2,-7.151777E-2,1.9048999E2,1.2752123E0,1.2119098E0,1.528E1,6.185E0,1.6439999E1,1.4485001E1,-5.192977E-1,1.09525E2,-2.6566291E-2,9.9363655E-2,2.076E1,1.1915E1,1.16490005E2,1.3528E2,2.536215E-1,2.209641E-1,7.3009995E1,1.25E1,1.5236714E0,1.82025E2,8.7574303E-1,1.55E1,2.5845075E-1,1.0290337E0,1.65E1,5.8240047E0,7.5E0,-2.1309882E-1,1.8920999E2,4.1050003E1,1.5818516E0,1.5500553E0,1.6181489E0,1.6094376E0,1.5005457E0,1.6418148E0,1.5850458E0,1.5580406E0,1.8392371E0,2.081064E0,3.4235E1,2.1381288E0,1.2740508E0,1.2277355E0,1.3329976E0,4.896E1,1.851E1,1.5050466E0,7.175E0,6.5296793E-1,-7.9991776E-1,1.8432016E0,1.4927056E0,1.4680234E0,1.2448786E-1,4.491975E-1,6.78E1,1.9753071E0,1.25E-1,3.0723673E-1,7.8115005E1,7.224E1,-5.578706E-1,-1.9743034E0,6.643E2,3.5E0,-3.2191494E-1,5.21681E-1,9.8E1,6.6462083E0,5.329998E-2,4.7650814E-1,9.1006184E-1,2.590065E-1,1.2993782E0,1.3941E2,7.551423E-1,9.609E1,1.4336135E0,1.1752264E0,1.1323463E0,4.361097E0,1.4614899E0,1.3324168E0,5.2683216E-1,3.930718E-1,8.218318E-1,5.928162E-1,1.1815001E1,1.35E0,2.968199E-1,-6.5542316E-1,1.0993241E0,9.328934E-1,4.6327767E-1,3.4551457E-1,7.4654716E-1,5.54084E-1,1.4394044E0,3.4815002E1,6.0032505E-1,7.5E0,-1.326294E-1,1.9709234E0,2.683734E0,2.027614E0,1.3003188E0,3.2001534E0,7.762194E-1,8.9620143E-1,1.1000835E0,8.914792E-1,1.4174984E-1,4.9639192E-1,1.2655704E0,6.5E0,7.5E0,-5.370593E-1,1.6824656E0,1.2919999E0,1.4090078E-2,3.2153351E0,7.847E1,5.6518364E-1,5.820804E0,2.5E0,5.5E0,1.11645004E2,8.9505415E0,1.25E1,1.25E1,1.35E1,1.3499999E-1,2.56375E2,3.169769E0,1.35E1,7.0148563E-1,7.709849E0,9.7877944E-1,7.4513307E0,8.019E1,4.0390277E0,4.603393E0,1.1063657E1,3.9326352E-1,1.066E2,1.36025E2,1.2636E2,6.7320213E0,6.675E1,2.1682136E0,2.5852191E0,8.5E0,3.65E-1,1.91765E2,6.284994E-1,5.4235196E-1,6.0735E1,1.37475E2,3.8494012E0,2.450862E0,1.3741845E0,6.881088E-2,-4.6525317E-1,1.15302E-1,1.65E1,2.05E-1,1.1510037E0,4.559E1,1.2231225E0,4.7205E1,3.1617248E0,2.1810958E0,7.788446E-1,1.5791501E2,2.253203E0,2.1464272E-1,2.736023E-1,1.2591769E-1,1.5082169E-1,1.4266326E-1,2.1867803E-1,1.5344563E0,1.740118E0,1.9857367E0,2.9176738E0,1.8934269E0,1.6581329E0,2.4768724E0,2.1822708E0,1.6348641E0,1.4111298E0,1.3770636E0,1.1930207E0,6.095114E-1,9.8998404E-1,2.4177957E0,2.8170955E0,3.2927094E0,4.166069E0,5.9867163E0,4.0840454E0,2.6859806E0,3.823782E0,6.764521E0,3.7750416E0,2.8030355E0,5.3442574E0,4.396672E0,3.6089075E0,6.3202066E0,5.1061654E0,5.7941318E0,4.1809306E0,8.806682E0,5.4744606E0,7.238998E0,3.4155407E0,5.210734E0,4.3702006E0,4.399381E0,5.922297E0,1.035069E1,3.4132638E0,4.604738E0,8.900161E0,3.4706826E0,4.4682255E0,4.1965737E0,7.1976314E0,5.8621135E0,6.909265E0,4.7462068E0,5.62203E0,2.816272E0,8.44844E0,3.8824947E0,3.222468E0,2.758335E0,3.3847306E0,3.8653684E0,1.6296974E0,2.989635E0,3.493983E0,2.9511633E0,4.34708E0,3.0376537E0,5.1342463E0,4.564456E0,5.3855724E0,3.633735E0,1.7987099E0,4.400548E0,2.6226761E0,2.3177087E0,2.9218922E0,1.7488654E0,3.34659E0,2.0733829E0,2.405969E0,3.1707208E0,2.5912182E0,2.1262953E0,1.6608998E0,1.7567393E0,2.0908155E0,2.5385847E0,1.7640034E0,1.5974338E0,3.9047272E0,2.4879367E0,3.1484857E0],"split_indices":[13,12,9,0,9,11,9,0,2,19,19,2,22,11,11,9,9,9,11,9,9,5,6,11,11,5,11,9,9,20,20,18,20,6,11,2,2,20,20,11,11,2,1,11,22,2,11,2,22,2,1,22,0,22,2,11,20,9,9,9,9,9,0,9,9,0,0,19,0,9,9,9,19,19,9,19,0,1,0,9,9,2,1,12,10,0,9,11,11,5,5,19,28,5,9,16,0,2,10,9,5,10,11,5,11,9,1,9,0,9,9,0,0,0,0,12,20,0,2,0,0,0,0,0,0,0,20,1,22,10,0,0,0,0,0,0,0,0,0,0,0,0,22,22,2,0,0,2,0,11,8,0,23,23,21,0,22,22,22,0,21,0,22,2,0,10,0,21,0,0,0,2,12,11,11,0,13,0,0,22,0,20,2,2,13,11,0,10,10,2,2,2,22,0,0,21,8,21,0,0,0,11,0,0,0,0,0,0,0,0,0,0,0,0,0,0,0,0,0,0,0,0,0,0,0,0,0,0,0,0,0,0,0,0,0,0,0,0,0,0,0,0,0,0,0,0,0,0,0,0,0,0,0,0,0,0,0,0,0,0,0,0,0,0,0,0,0,0,0,0,0,0,0,0,0,0,0,0,0,0,0,0,0,0,0,0,0,0,0,0,0,0,0,0,0,0,0,0,0],"split_type":[0,0,0,0,0,0,0,0,0,0,0,0,0,0,0,0,0,0,0,0,0,0,0,0,0,0,0,0,0,0,0,0,0,0,0,0,0,0,0,0,0,0,0,0,0,0,0,0,0,0,0,0,0,0,0,0,0,0,0,0,0,0,0,0,0,0,0,0,0,0,0,0,0,0,0,0,0,0,0,0,0,0,0,0,0,0,0,0,0,0,0,0,0,0,0,0,0,0,0,0,0,0,0,0,0,0,0,0,0,0,0,0,0,0,0,0,0,0,0,0,0,0,0,0,0,0,0,0,0,0,0,0,0,0,0,0,0,0,0,0,0,0,0,0,0,0,0,0,0,0,0,0,0,0,0,0,0,0,0,0,0,0,0,0,0,0,0,0,0,0,0,0,0,0,0,0,0,0,0,0,0,0,0,0,0,0,0,0,0,0,0,0,0,0,0,0,0,0,0,0,0,0,0,0,0,0,0,0,0,0,0,0,0,0,0,0,0,0,0,0,0,0,0,0,0,0,0,0,0,0,0,0,0,0,0,0,0,0,0,0,0,0,0,0,0,0,0,0,0,0,0,0,0,0,0,0,0,0,0,0,0,0,0,0,0,0,0,0,0,0,0,0,0,0,0,0,0,0,0,0,0,0,0,0,0,0,0,0,0,0,0,0,0,0,0,0,0,0,0],"sum_hessian":[4.6886E4,2.9653E4,1.7233E4,2.4955E4,4.698E3,8.734E3,8.499E3,2.2672E4,2.283E3,2.444E3,2.254E3,7.01E3,1.724E3,4.278E3,4.221E3,1.77E3,5.13E2,1.077E3,1.367E3,5.83E2,1.671E3,2.244E3,4.766E3,5.11E2,1.213E3,3.657E3,6.21E2,3.755E3,4.66E2,4.52E2,1.318E3,2.63E2,2.5E2,2.89E2,7.88E2,1.233E3,1.34E2,3.74E2,2.09E2,7E2,9.71E2,2.071E3,1.73E2,3.705E3,1.061E3,3.43E2,1.68E2,9.14E2,2.99E2,2.658E3,9.99E2,4.86E2,1.35E2,3.106E3,6.49E2,2.55E2,2.11E2,3.2E2,1.32E2,8.99E2,4.19E2,2.43E2,2E1,6.8E1,1.82E2,1.8E2,1.09E2,7.4E2,4.8E1,5.64E2,6.69E2,9.5E1,3.9E1,2.19E2,1.55E2,9.1E1,1.18E2,5.78E2,1.22E2,8.68E2,1.03E2,7.49E2,1.322E3,6.5E1,1.08E2,2.714E3,9.91E2,8.51E2,2.1E2,1.03E2,2.4E2,1.35E2,3.3E1,1.7E2,7.44E2,2.16E2,8.3E1,6.54E2,2.004E3,8.65E2,1.34E2,2.09E2,2.77E2,7.05E2,2.401E3,3.03E2,3.46E2,1.64E2,9.1E1,4.1E1,1.7E2,1.02E2,2.18E2,2.7E1,1.05E2,4.37E2,4.62E2,2.59E2,1.6E2,7.3E1,1.7E2,4.3E1,2.5E1,1.21E2,6.1E1,1.56E2,5.84E2,2.22E2,3.42E2,4.54E2,2.15E2,5.9E1,3.6E1,2E0,3.7E1,8.1E1,1.38E2,9.9E1,5.6E1,2E0,8.9E1,1.14E2,4.64E2,7.61E2,1.07E2,6.3E1,4E1,3.61E2,3.88E2,5.18E2,8.04E2,6E0,5.9E1,9.4E1,1.4E1,1E1,2.704E3,5.45E2,4.46E2,7.09E2,1.42E2,2.5E1,1.85E2,7.7E1,2.6E1,1.7E1,2.23E2,1.32E2,3E0,2E0,3.1E1,1.56E2,1.4E1,4.9E2,2.54E2,4.5E1,1.71E2,2.09E2,4.45E2,1.025E3,9.79E2,3.69E2,4.96E2,5.1E1,8.3E1,1.8E2,2.9E1,1.29E2,1.48E2,5.88E2,1.17E2,2.062E3,3.39E2,2.59E2,4.4E1,2.79E2,6.7E1,4.6E1,1.18E2,3.9E1,2E0,1.42E2,2.8E1,3.51E2,8.6E1,1.56E2,3.06E2,8E0,1.52E2,1.22E2,4.62E2,2.08E2,1.4E1,1.27E2,2.15E2,1.33E2,3.21E2,1.63E2,3.01E2,2.11E2,5.5E2,1.4E1,9.3E1,9.6E1,2.65E2,4.44E2,7.4E1,1.3E1,7.91E2,4E1,1.9E1,8.3E1,1.1E1,1E1,4E0,2.209E3,4.95E2,2.41E2,3.04E2,8.9E1,3.57E2,2.1E1,6.88E2,1.39E2,3E0,6.3E1,1.22E2,1.7E1,6E1,1.5E1,2E0,4E0,1.28E2,2.7E1,1.29E2,8E0,6E0,3.31E2,1.59E2,1.34E2,1.2E2,2E0,1.69E2,3.68E2,6.57E2,8.06E2,1.73E2,3.65E2,4E0,2.68E2,2.28E2,1.8E1,3.3E1,8E0,7.5E1,9.3E1,8.7E1,1.26E2,3E0,1.4E2,8E0,2.3E2,3.58E2,4E0,1.13E2,8.1E2,1.252E3,7.3E1,2.66E2,2E1,2.39E2,1.76E2,1.03E2,5.1E1,1.6E1,2E0,4.4E1,3.4E1,1.08E2],"tree_param":{"num_deleted":"0","num_feature":"30","num_nodes":"299","size_leaf_vector":"0"}},{"base_weights":[3.0925571E1,4.0784326E0,7.320272E1,2.651903E-1,2.796991E1,5.787085E1,9.4047676E1,-3.3010328E-1,7.737907E0,2.302822E1,3.4641457E1,4.578656E1,6.697242E1,8.141699E1,1.1955954E2,-3.8693124E-1,3.1849265E0,6.412624E0,1.6617085E1,1.902173E1,2.6638277E1,3.1371906E1,3.738862E1,4.0989105E1,5.111659E1,5.9151115E1,7.428017E1,8.551842E1,5.7170677E1,1.4417342E2,1.06427345E2,-3.8687775E-1,-6.592866E-1,1.4241863E1,3.0844963E0,4.8488555E0,1.0649445E1,1.2662119E1,2.5449753E1,1.4680539E1,2.2560816E1,2.25138E1,3.0908325E1,2.7817999E1,3.4369312E1,3.1118599E1,3.8693428E1,3.5315434E1,4.4810722E1,4.2896156E1,5.5692223E1,5.1640186E1,6.6548965E1,9.285402E1,6.918673E1,8.1237915E1,1.0384589E2,7.2833145E1,5.2586113E1,1.3196083E2,1.7235466E2,9.853267E1,1.4816763E2,2.5044537E0,3.703708E0,3.6247244E0,6.039702E0,9.181654E0,1.3895892E1,9.672316E0,1.4192364E1,2.726875E1,1.8940514E1,1.0560545E1,1.6043722E1,2.0264565E1,2.4397638E1,1.7292555E1,2.3746525E1,3.5622803E1,2.884366E1,2.5479433E1,2.9890993E1,3.3506695E1,4.46659E1,4.092007E1,3.564128E1,3.107257E1,3.8272427E1,4.7934437E1,4.043257E1,4.096949E1,5.656577E1,5.4142464E1,7.396242E1,5.0171844E1,7.059535E1,6.928993E1,4.5732292E1,7.035124E1,1.03996666E2,6.542152E1,7.8772354E1,7.046216E1,8.5728E1,1.0037431E2,1.3097324E2,6.0788067E1,8.7881676E1,5.7003746E1,4.7431072E1,1.3867451E2,1.1513422E2,1.749166E2,8.9789635E1,8.839751E1,1.0944121E2,1.4011523E2,1.8610742E2,2.0243804E0,2.6111536E0,3.4923663E0,4.104769E0,2.7217822E0,4.0737977E0,5.525472E0,7.0529323E0,8.353994E0,9.991655E0,1.2331426E1,1.7146767E1,6.3721995E0,1.0295838E1,1.1931628E1,1.5081862E1,8.752446E0,1.1587339E1,1.4869913E1,1.7858294E1,1.1575478E1,2.052082E1,2.1095123E1,2.5777802E1,1.2632155E1,1.769341E1,2.2145346E1,2.5011635E1,3.377585E1,4.2180183E1,2.8188383E1,3.34161E1,1.1904938E1,3.002323E1,2.0433416E1,3.3800045E1,3.4746647E1,4.2211346E1,2.3863321E1,3.2225418E1,3.661456E1,4.3054184E1,4.6833717E1,6.213471E1,3.86383E1,4.433303E1,3.5576298E1,4.3498997E1,1.1671899E2,5.322668E1,4.7781254E1,5.7060402E1,2.4241877E1,7.469967E1,4.3605595E1,5.3261887E1,1.07478455E2,6.441473E1,6.702061E1,8.559746E1,4.3834705E1,6.2671394E1,6.80384E1,1.422738E2,1.18241196E2,8.826075E1,5.94974E1,7.215414E1,8.886821E1,6.850471E1,5.528502E1,7.461126E1,8.845028E1,6.864595E1,9.542776E1,1.1411871E2,1.0920578E2,1.5719637E2,9.199069E1,5.6906116E1,7.731127E1,1.1753232E2,5.427627E1,6.65968E1,4.3790638E1,5.138849E1,1.5502968E2,1.239494E2,1.23767586E2,1.0524939E2,1.8614398E2,1.5534473E2,3.5043983E1,9.909555E1,9.9093925E1,8.194583E1,1.2608241E2,1.018662E2,1.4491652E2,9.6676506E1,8.779263E1,1.9128622E2,2.323184E0,2.8909674E0,2.2829678E0,3.0096962E0,3.6505108E0,4.4956717E0,5.397217E0,8.40624E0,6.077882E0,7.4240723E0,1.1077902E1,1.5143494E1,7.1721306E0,1.7962706E1,9.473415E0,2.0700285E1,2.6588493E1,2.0805618E1,2.0087713E1,2.3468473E1,2.757349E1,2.3250153E1,1.6406311E1,3.403645E1,3.3544186E1,4.9799164E1,2.976437E1,2.6326874E1,3.22628E1,3.7460342E1,3.841765E1,4.478866E1,3.5658203E1,4.622497E1,4.0024822E1,5.5267094E1,4.2584084E1,4.8895744E1,3.611318E1,6.3977737E1,4.141341E1,3.6571877E1,3.3772343E1,3.9657856E1,4.904086E1,4.069479E1,4.7472916E1,6.534262E1,5.11403E1,4.2972645E1,5.87874E1,4.901521E1,6.8860306E1,8.993049E1,4.2093468E1,5.368158E1,5.1863285E1,7.146445E1,4.3913452E1,1.150436E2,5.95091E1,6.976273E1,6.9211075E1,8.871432E1,4.1344627E1,5.27023E1,4.7999783E1,7.3296135E1,4.801017E1,1.22611404E2,7.704299E1,1.036216E2,4.8235405E1,6.633856E1,6.1744526E1,7.946873E1,7.779546E1,9.755818E1,5.7380604E1,7.644151E1,5.010978E1,6.2979107E1,7.995914E1,6.6542465E1,8.366192E1,1.0341644E2,5.816345E1,7.548974E1,9.840905E1,7.280461E1,1.3421529E2,1.0604039E2,9.186521E1,1.5549484E2,8.790022E1,1.8128055E2,4.9668686E1,6.434931E1,7.905499E1,3.4879147E1,1.2598277E2,5.8572647E1,4.7452957E1,5.7842014E1,4.831382E1,7.074976E1,4.5290894E1,5.480413E1,1.4646324E2,1.8285162E2,1.1265441E2,1.3102106E2,1.2981862E2,9.1678955E1,9.440244E1,1.1950014E2,1.6943661E2,2.0448833E2,1.6334213E2,1.13074486E2,9.2805954E1,1.0844901E2,7.011552E1,8.493009E1,1.635309E2,1.211765E2,9.177743E1,1.0839498E2,9.559787E1,1.4845598E2,8.050611E1,1.9499817E2],"categories":[],"categories_nodes":[],"categories_segments":[],"categories_sizes":[],"default_left":[1,1,1,1,1,1,0,1,1,0,0,0,0,1,1,1,1,1,1,0,1,0,0,1,1,1,1,1,1,0,0,1,1,0,1,0,0,0,1,0,1,0,1,0,0,0,1,1,1,0,0,0,1,0,0,0,1,0,1,1,1,0,1,0,0,0,1,0,0,0,0,0,0,0,0,0,0,0,0,0,0,0,1,0,0,0,0,0,1,0,1,0,1,1,1,1,1,0,0,0,1,1,1,0,1,1,0,1,1,1,0,1,1,1,0,1,1,1,0,0,0,0,0,0,0,1,0,0,0,0,0,0,0,0,0,0,0,0,0,0,1,0,1,0,0,1,1,0,1,1,0,0,0,0,1,0,1,0,0,0,0,0,0,1,0,0,1,0,0,1,1,0,1,1,1,0,0,0,0,1,0,0,0,1,0,1,1,1,1,1,1,0,0,1,1,1,1,0,1,0,0,0,1,0,0,1,0,1,0,0,1,0,0,0,0,1,1,0,0,0,0,0,0,0,0,0,0,0,0,0,0,0,0,0,0,0,0,0,0,0,0,0,0,0,0,0,0,0,0,0,0,0,0,0,0,0,0,0,0,0,0,0,0,0,0,0,0,0,0,0,0,0,0,0,0,0,0,0,0,0,0,0,0,0,0,0,0,0,0,0,0,0,0,0,0,0,0,0,0,0,0,0,0,0,0,0,0,0,0,0,0,0,0,0,0,0,0,0,0,0,0,0,0,0,0,0,0,0,0,0,0,0,0,0,0,0,0,0,0,0,0,0,0,0,0,0,0,0,0,0,0,0,0],"id":5,"left_children":[1,3,5,7,9,11,13,15,17,19,21,23,25,27,29,-1,33,35,37,39,41,43,45,47,49,51,53,55,57,59,61,-1,-1,-1,63,65,67,69,71,73,75,77,79,81,83,-1,85,87,89,91,93,95,97,99,101,103,105,107,109,111,113,115,117,119,121,123,125,127,129,131,133,-1,-1,135,137,139,141,143,145,147,149,-1,151,153,-1,155,-1,157,159,161,163,165,167,169,171,173,175,177,179,181,183,185,187,189,191,193,195,197,199,201,203,205,207,209,211,213,215,217,219,-1,221,-1,-1,223,225,227,229,-1,-1,-1,-1,-1,-1,-1,-1,-1,-1,231,233,-1,235,-1,237,-1,-1,239,241,243,245,247,-1,-1,-1,-1,249,-1,251,-1,-1,253,255,257,259,261,-1,263,265,-1,267,269,271,-1,273,275,277,279,-1,281,283,285,-1,287,-1,289,291,293,295,297,299,301,303,305,307,309,311,313,315,-1,317,319,321,323,325,-1,327,329,331,333,335,337,339,-1,-1,341,343,345,347,349,-1,-1,351,-1,-1,-1,-1,-1,-1,-1,-1,-1,-1,-1,-1,-1,-1,-1,-1,-1,-1,-1,-1,-1,-1,-1,-1,-1,-1,-1,-1,-1,-1,-1,-1,-1,-1,-1,-1,-1,-1,-1,-1,-1,-1,-1,-1,-1,-1,-1,-1,-1,-1,-1,-1,-1,-1,-1,-1,-1,-1,-1,-1,-1,-1,-1,-1,-1,-1,-1,-1,-1,-1,-1,-1,-1,-1,-1,-1,-1,-1,-1,-1,-1,-1,-1,-1,-1,-1,-1,-1,-1,-1,-1,-1,-1,-1,-1,-1,-1,-1,-1,-1,-1,-1,-1,-1,-1,-1,-1,-1,-1,-1,-1,-1,-1,-1,-1,-1,-1,-1,-1,-1,-1,-1,-1,-1,-1,-1,-1,-1,-1,-1,-1,-1],"loss_changes":[5.313456E7,2.6085728E6,5.805376E6,1.0984838E5,1.29132E5,1.149476E6,2.472744E6,4.56996E3,2.133368E4,3.2282375E4,1.3871875E4,1.131E5,3.37114E5,5.07844E5,8.0858E5,7.2753906E-2,3.602749E2,1.0462879E4,7.921914E3,1.6231E4,2.0262E4,7.2570625E3,6.2E3,4.993525E4,7.7728E4,1.57202E5,2.85432E5,3.37376E5,4.995225E4,2.81498E5,5.3439E5,0E0,0E0,0E0,1.2074341E2,1.6705586E3,1.9071094E3,6.1762305E2,3.3601562E2,2.565711E3,2.0025625E3,3.5090938E3,4.637625E3,9.7390625E2,2.1805312E3,0E0,3.6045E3,1.0867625E4,1.742725E4,1.7856625E4,3.4645E4,3.65095E4,7.9736E4,1.584235E5,8.237E4,1.67078E5,6.5113E4,2.4928375E4,1.0572875E4,5.4187E4,4.0138E4,1.45552E5,5.4272E4,4.446533E0,3.2836914E-1,2.2206738E2,2.6687695E2,1.15640625E2,4.5480664E2,5.5796875E1,3.5216797E1,0E0,0E0,1.2879395E2,5.097578E2,3.6142188E2,9.33E2,6.71875E-1,4.386875E2,6.705469E2,2.8653125E2,0E0,8.0203125E1,7.896875E2,0E0,1.91325E3,0E0,2.5554688E3,2.878875E3,9.922625E3,2.458125E3,7.660875E3,1.2266281E4,2.06985E4,2.001375E3,2.48455E4,1.61008125E4,4.17065E4,2.7815E3,2.7248625E4,8.819E4,6.5386E4,6.4298E4,6.24985E4,1.1116E5,3.94885E4,3.4777125E4,6.3934062E3,1.3479625E4,4.47025E3,1.7115625E3,8.6509E4,2.5905E3,2.7117E4,1.6218828E3,4.2464E4,7.1867E4,3.2082E4,5.1E3,0E0,5.531616E0,0E0,0E0,1.7639038E1,5.180371E1,1.00203125E2,2.5082031E1,0E0,0E0,0E0,0E0,0E0,0E0,0E0,0E0,0E0,0E0,6.7734375E1,2.5144531E1,0E0,3.193828E2,0E0,3.4973438E2,0E0,0E0,1.4113281E2,5.5928125E2,7.5296875E1,5.666367E2,2.871875E2,0E0,0E0,0E0,0E0,9.07125E2,0E0,1.662375E3,0E0,0E0,2.2486875E3,2.9305625E3,4.63025E3,3.7523438E2,8.71E2,0E0,2.8784375E2,5.07525E3,0E0,3.1024062E3,4.31175E3,9.06725E3,0E0,2.8790625E3,4.352875E3,1.935875E4,1.1994531E3,0E0,1.91235E4,1.674375E3,1.3098438E3,0E0,1.9344438E4,0E0,6.409225E4,2.87195E4,6.88375E4,5.69965E4,2.50295E4,2.57205E4,6.0423125E3,3.04085E4,1.46928E5,2.079E4,2.9999E4,1.6776E4,2.8257375E4,4.9154125E4,0E0,1.544375E3,1.3860625E3,1.090875E3,3.2405E3,1.4412188E3,0E0,1.42125E2,2.1839E4,4.09025E3,5.961875E3,2.9399375E3,1.3471E4,1.499725E4,0E0,0E0,5.8765E3,1.03915E4,1.803025E4,2.08115E4,2.019625E4,0E0,0E0,7.49875E2,0E0,0E0,0E0,0E0,0E0,0E0,0E0,0E0,0E0,0E0,0E0,0E0,0E0,0E0,0E0,0E0,0E0,0E0,0E0,0E0,0E0,0E0,0E0,0E0,0E0,0E0,0E0,0E0,0E0,0E0,0E0,0E0,0E0,0E0,0E0,0E0,0E0,0E0,0E0,0E0,0E0,0E0,0E0,0E0,0E0,0E0,0E0,0E0,0E0,0E0,0E0,0E0,0E0,0E0,0E0,0E0,0E0,0E0,0E0,0E0,0E0,0E0,0E0,0E0,0E0,0E0,0E0,0E0,0E0,0E0,0E0,0E0,0E0,0E0,0E0,0E0,0E0,0E0,0E0,0E0,0E0,0E0,0E0,0E0,0E0,0E0,0E0,0E0,0E0,0E0,0E0,0E0,0E0,0E0,0E0,0E0,0E0,0E0,0E0,0E0,0E0,0E0,0E0,0E0,0E0,0E0,0E0,0E0,0E0,0E0,0E0,0E0,0E0,0E0,0E0,0E0,0E0,0E0,0E0,0E0,0E0,0E0,0E0,0E0,0E0,0E0,0E0,0E0,0E0,0E0,0E0,0E0],"parents":[2147483647,0,0,1,1,2,2,3,3,4,4,5,5,6,6,7,7,8,8,9,9,10,10,11,11,12,12,13,13,14,14,15,15,16,16,17,17,18,18,19,19,20,20,21,21,22,22,23,23,24,24,25,25,26,26,27,27,28,28,29,29,30,30,34,34,35,35,36,36,37,37,38,38,39,39,40,40,41,41,42,42,43,43,44,44,46,46,47,47,48,48,49,49,50,50,51,51,52,52,53,53,54,54,55,55,56,56,57,57,58,58,59,59,60,60,61,61,62,62,63,63,64,64,65,65,66,66,67,67,68,68,69,69,70,70,73,73,74,74,75,75,76,76,77,77,78,78,79,79,80,80,82,82,83,83,85,85,87,87,88,88,89,89,90,90,91,91,92,92,93,93,94,94,95,95,96,96,97,97,98,98,99,99,100,100,101,101,102,102,103,103,104,104,105,105,106,106,107,107,108,108,109,109,110,110,111,111,112,112,113,113,114,114,115,115,116,116,117,117,118,118,120,120,123,123,124,124,125,125,126,126,137,137,138,138,140,140,142,142,145,145,146,146,147,147,148,148,149,149,154,154,156,156,159,159,160,160,161,161,162,162,163,163,165,165,166,166,168,168,169,169,170,170,172,172,173,173,174,174,175,175,177,177,178,178,179,179,181,181,183,183,184,184,185,185,186,186,187,187,188,188,189,189,190,190,191,191,192,192,193,193,194,194,195,195,196,196,198,198,199,199,200,200,201,201,202,202,204,204,205,205,206,206,207,207,208,208,209,209,210,210,213,213,214,214,215,215,216,216,217,217,220,220],"right_children":[2,4,6,8,10,12,14,16,18,20,22,24,26,28,30,-1,34,36,38,40,42,44,46,48,50,52,54,56,58,60,62,-1,-1,-1,64,66,68,70,72,74,76,78,80,82,84,-1,86,88,90,92,94,96,98,100,102,104,106,108,110,112,114,116,118,120,122,124,126,128,130,132,134,-1,-1,136,138,140,142,144,146,148,150,-1,152,154,-1,156,-1,158,160,162,164,166,168,170,172,174,176,178,180,182,184,186,188,190,192,194,196,198,200,202,204,206,208,210,212,214,216,218,220,-1,222,-1,-1,224,226,228,230,-1,-1,-1,-1,-1,-1,-1,-1,-1,-1,232,234,-1,236,-1,238,-1,-1,240,242,244,246,248,-1,-1,-1,-1,250,-1,252,-1,-1,254,256,258,260,262,-1,264,266,-1,268,270,272,-1,274,276,278,280,-1,282,284,286,-1,288,-1,290,292,294,296,298,300,302,304,306,308,310,312,314,316,-1,318,320,322,324,326,-1,328,330,332,334,336,338,340,-1,-1,342,344,346,348,350,-1,-1,352,-1,-1,-1,-1,-1,-1,-1,-1,-1,-1,-1,-1,-1,-1,-1,-1,-1,-1,-1,-1,-1,-1,-1,-1,-1,-1,-1,-1,-1,-1,-1,-1,-1,-1,-1,-1,-1,-1,-1,-1,-1,-1,-1,-1,-1,-1,-1,-1,-1,-1,-1,-1,-1,-1,-1,-1,-1,-1,-1,-1,-1,-1,-1,-1,-1,-1,-1,-1,-1,-1,-1,-1,-1,-1,-1,-1,-1,-1,-1,-1,-1,-1,-1,-1,-1,-1,-1,-1,-1,-1,-1,-1,-1,-1,-1,-1,-1,-1,-1,-1,-1,-1,-1,-1,-1,-1,-1,-1,-1,-1,-1,-1,-1,-1,-1,-1,-1,-1,-1,-1,-1,-1,-1,-1,-1,-1,-1,-1,-1,-1,-1,-1],"split_conditions":[4.4965E1,-5.364374E-1,9.5531666E-1,-6.4353746E-1,-2.562347E-1,6.5759995E1,8.4685E1,-6.707318E-1,2.204E1,2.9535E1,3.916E1,5.7965E1,8.575E1,2.615E2,1.35E1,-1.9346563E-2,-6.6374934E-1,1.045E1,2.2915E1,2.489E1,3.3615E1,3.8415E1,3.9699997E1,-2.218074E-2,6.664072E-2,3.1357548E-1,2.1115077E-1,1.0811626E0,-2.1277907E-1,1.22509995E2,1.72735E2,-1.9343888E-2,-3.296433E-2,7.120932E-1,4.435E0,6.635E0,1.6E1,1.359E1,3.255E2,1.62E1,2.9314999E1,2.3435001E1,-4.909951E-1,3.3050003E1,1.35515E2,1.55593E0,2.785E2,4.2475E1,2.865E2,1.19134995E2,1.3908499E2,1.5805E2,2.835E2,7.2115005E1,8.4259995E1,7.8509995E1,2.0165E3,7.8065E1,2.865E2,2.4756312E0,2.0634718E0,1.1871E2,2.0165E3,1.325E0,5.625E0,4.6099997E0,1.4934999E1,6.855E0,1.076E1,9.825E0,2.541E1,1.3634375E0,9.470257E-1,1.331E1,2.166E1,6.75E0,1.7175E1,1.7455E1,2.966E1,4.5925003E1,1.20225E2,1.2739717E0,-2.9909585E0,2.123E1,2.2332952E0,3.6775E1,1.7820641E0,3.0314999E1,6.153857E-1,1.25E2,4.45E-1,4.889E1,1.95E-1,5.534E1,-2.8627878E-1,5.8315002E1,1.65E1,1.33985E2,5.6940002E1,1.8026999E2,1.95E-1,2.291132E0,1.55E1,6.1760002E1,1.35E1,1.6012776E0,1.16215E2,1.6499999E-1,5.2445287E-1,8.7115005E1,9.424999E0,1.25E1,1.25E1,2.0090308E0,1.27545E2,1.45E1,1.45E1,1.65E1,7.821E1,1.0121902E-1,4.95E0,1.7461832E-1,2.0523846E-1,5.25E0,6.05E0,-6.0727507E-1,1.4785E1,4.1769972E-1,4.9958277E-1,6.165713E-1,8.5733837E-1,3.1860998E-1,5.147919E-1,5.965814E-1,7.540931E-1,4.376223E-1,5.79367E-1,7.925E0,4.975E0,5.787739E-1,-5.3100204E-1,1.0547562E0,8E0,6.316078E-1,8.8467056E-1,-4.0490252E-1,2.015E2,2.1439999E1,7.1461284E-1,6.5E0,1.670805E0,5.952469E-1,1.5011615E0,1.0216708E0,9.736188E-3,1.7373323E0,-4.0818885E-2,1.1931661E0,1.6112709E0,1.3314E2,5.9375E1,4.8875E1,4.184E1,3.145E2,2.2166517E0,6.4149994E1,-2.3326196E-1,5.8359494E0,1.6054999E2,8.5E0,2.825E2,1.2120938E0,4.9924636E-1,6.461321E-1,8.019607E-1,6.261E1,3.2207363E0,6.8149994E1,6.6625E1,2.2383443E-1,3.1335697E0,6.0665E1,7.1136904E0,-4.2108577E-1,9.295E1,2.8000265E-1,2.8645432E-1,5.882279E-1,3.9154476E-1,4.85E1,7.9710686E-1,6.059E1,7.27E1,2.365E2,2.0035E3,7.5E0,7.5E0,4.5995345E0,-3.9621884E-1,1.9615E2,1.4425E2,6.8925E1,2.0075E3,2.189532E0,6.1510002E1,7.5E0,9.8165E1,2.0155E3,1.0269E2,1.4273999E2,3.936868E-1,1.7521992E0,4.9547777E0,1.04600006E2,9.1185E1,-2.0062144E0,1.4377284E0,7.4634995E1,4.8338256E0,4.3896317E0,7.2600006E1,1.161592E-1,1.4454837E-1,1.1414839E-1,1.5048482E-1,1.8252555E-1,2.2478358E-1,2.6986083E-1,4.2031202E-1,3.038941E-1,3.7120363E-1,5.538951E-1,7.571747E-1,3.5860655E-1,8.981353E-1,4.7367078E-1,1.0350143E0,1.3294247E0,1.0402809E0,1.0043857E0,1.1734236E0,1.3786745E0,1.1625077E0,8.2031554E-1,1.7018225E0,1.6772093E0,2.4899583E0,1.4882185E0,1.3163437E0,1.61314E0,1.8730172E0,1.9208825E0,2.239433E0,1.7829102E0,2.3112485E0,2.0012412E0,2.7633548E0,2.1292043E0,2.4447873E0,1.8056589E0,3.1988869E0,2.0706706E0,1.8285939E0,1.6886171E0,1.9828929E0,2.452043E0,2.0347395E0,2.3736458E0,3.267131E0,2.5570152E0,2.1486323E0,2.93937E0,2.4507606E0,3.4430153E0,4.4965243E0,2.1046734E0,2.684079E0,2.5931642E0,3.5732224E0,2.1956728E0,5.75218E0,2.975455E0,3.4881368E0,3.460554E0,4.435716E0,2.0672314E0,2.6351151E0,2.3999891E0,3.6648068E0,2.4005086E0,6.1305704E0,3.8521497E0,5.18108E0,2.4117703E0,3.3169281E0,3.0872264E0,3.9734364E0,3.8897731E0,4.877909E0,2.8690302E0,3.8220756E0,2.505489E0,3.1489553E0,3.997957E0,3.3271234E0,4.183096E0,5.170822E0,2.9081724E0,3.774487E0,4.9204526E0,3.6402307E0,6.7107644E0,5.3020196E0,4.593261E0,7.774742E0,4.3950114E0,9.064028E0,2.4834344E0,3.2174656E0,3.9527497E0,1.7439574E0,6.2991385E0,2.9286325E0,2.372648E0,2.8921008E0,2.4156911E0,3.5374882E0,2.2645447E0,2.7402065E0,7.323162E0,9.142581E0,5.6327205E0,6.551053E0,6.490931E0,4.5839477E0,4.7201223E0,5.975007E0,8.471831E0,1.0224417E1,8.167107E0,5.653724E0,4.640298E0,5.4224505E0,3.505776E0,4.246505E0,8.176545E0,6.058825E0,4.5888715E0,5.4197493E0,4.7798934E0,7.422799E0,4.0253057E0,9.749908E0],"split_indices":[12,2,2,2,2,14,11,4,12,12,12,12,17,27,22,19,4,19,19,19,19,19,19,2,2,2,4,6,10,11,11,2147483647,2147483647,0,19,19,19,19,27,19,19,19,4,19,11,0,27,19,27,11,11,11,27,19,11,17,26,15,27,4,10,11,26,19,19,19,15,14,14,19,14,0,0,19,19,17,17,19,19,15,11,0,1,14,0,18,0,19,5,11,0,19,0,15,4,19,22,11,11,14,0,4,22,15,22,8,14,0,1,19,11,22,22,4,11,22,22,22,19,0,12,0,0,12,14,4,12,0,0,0,0,0,0,0,0,0,0,14,18,0,2,0,25,0,0,2,27,15,5,25,0,0,0,0,2,0,2,0,0,11,15,15,18,27,0,18,4,0,11,25,27,0,2,5,5,15,0,12,15,5,0,12,0,8,12,2,2,2,2,27,10,11,11,27,26,25,25,0,5,18,15,12,26,0,14,25,11,26,11,18,10,0,0,11,11,5,2,14,0,0,12,0,0,0,0,0,0,0,0,0,0,0,0,0,0,0,0,0,0,0,0,0,0,0,0,0,0,0,0,0,0,0,0,0,0,0,0,0,0,0,0,0,0,0,0,0,0,0,0,0,0,0,0,0,0,0,0,0,0,0,0,0,0,0,0,0,0,0,0,0,0,0,0,0,0,0,0,0,0,0,0,0,0,0,0,0,0,0,0,0,0,0,0,0,0,0,0,0,0,0,0,0,0,0,0,0,0,0,0,0,0,0,0,0,0,0,0,0,0,0,0,0,0,0,0,0,0,0,0,0,0,0,0],"split_type":[0,0,0,0,0,0,0,0,0,0,0,0,0,0,0,0,0,0,0,0,0,0,0,0,0,0,0,0,0,0,0,0,0,0,0,0,0,0,0,0,0,0,0,0,0,0,0,0,0,0,0,0,0,0,0,0,0,0,0,0,0,0,0,0,0,0,0,0,0,0,0,0,0,0,0,0,0,0,0,0,0,0,0,0,0,0,0,0,0,0,0,0,0,0,0,0,0,0,0,0,0,0,0,0,0,0,0,0,0,0,0,0,0,0,0,0,0,0,0,0,0,0,0,0,0,0,0,0,0,0,0,0,0,0,0,0,0,0,0,0,0,0,0,0,0,0,0,0,0,0,0,0,0,0,0,0,0,0,0,0,0,0,0,0,0,0,0,0,0,0,0,0,0,0,0,0,0,0,0,0,0,0,0,0,0,0,0,0,0,0,0,0,0,0,0,0,0,0,0,0,0,0,0,0,0,0,0,0,0,0,0,0,0,0,0,0,0,0,0,0,0,0,0,0,0,0,0,0,0,0,0,0,0,0,0,0,0,0,0,0,0,0,0,0,0,0,0,0,0,0,0,0,0,0,0,0,0,0,0,0,0,0,0,0,0,0,0,0,0,0,0,0,0,0,0,0,0,0,0,0,0,0,0,0,0,0,0,0,0,0,0,0,0,0,0,0,0,0,0,0,0,0,0,0,0,0,0,0,0,0,0,0,0,0,0,0,0,0,0,0,0,0,0,0,0,0,0,0,0,0,0,0,0,0,0,0,0,0,0,0,0,0,0,0,0,0,0,0,0,0,0,0,0],"sum_hessian":[4.6813E4,2.8632E4,1.8181E4,2.4692E4,3.94E3,1.0478E4,7.703E3,2.2871E4,1.821E3,2.266E3,1.674E3,4.504E3,5.974E3,5.155E3,2.548E3,2.2508E4,3.63E2,1.586E3,2.35E2,1.077E3,1.189E3,7.7E2,9.04E2,2.375E3,2.129E3,2.89E3,3.084E3,4.407E3,7.48E2,8.83E2,1.665E3,2.2506E4,2E0,2E0,3.61E2,1.16E3,4.26E2,1.64E2,7.1E1,4.86E2,5.91E2,6.08E2,5.81E2,3.57E2,4.13E2,1.6E2,7.44E2,9.6E2,1.415E3,7.65E2,1.364E3,1.438E3,1.452E3,6.6E2,2.424E3,3.577E3,8.3E2,1.66E2,5.82E2,6.2E2,2.63E2,1.403E3,2.62E2,1.89E2,1.72E2,5.74E2,5.86E2,2.96E2,1.3E2,5.8E1,1.06E2,5.3E1,